solver_type L2R_L2LOSS_SVC_DUAL
nr_class 6
label 1 2 3 4 5 6
nr_feature 18624
bias -1
w
0.000101277993352029 -6.398752314698319e-05 -1.221573949344656e-05 4.724653505738454e-05 -2.38130893466952e-05 -4.276490848119217e-06 
-7.804067748759236e-05 -6.440571526324274e-05 -1.465059126812623e-05 0.000131778655468829 -3.820513380550946e-05 1.375733160389713e-05 
3.795006469078185e-05 -0.0004094749520129137 -4.938880145418893e-05 0.0005852498909196306 -1.875528059977772e-05 -5.850186218666072e-05 
7.806572761972027e-05 -1.579166248607094e-05 -4.352020785804984e-06 5.659042156854591e-05 -1.462285349301086e-05 -7.80963103915748e-06 
4.846595846060806e-05 -3.474836072397074e-05 -5.47281002678249e-06 8.948948667629396e-05 -2.175819518346776e-05 -9.940928885925598e-06 
5.344364952440845e-05 -0.0003745239183078301 -6.245192584339074e-05 0.0006096436719281857 -2.310125964279911e-05 -8.545100528843359e-06 
-8.616447353269916e-05 -9.106128520465253e-05 -5.327983635606226e-06 -5.411645885563314e-05 2.537358837179455e-05 9.419866817317155e-07 
1.942023741459981e-05 -0.0001709462199195195 -7.048181961816631e-06 -4.48331013926797e-05 3.112905215268661e-05 -2.076403992623972e-05 
-2.67906964576184e-05 -0.0004448762074645495 -9.163168263714297e-05 0.0005782062452329637 3.164181225668812e-05 -2.082162620767161e-05 
5.164854676725425e-05 -2.723680292087956e-05 -2.791375235668365e-06 4.584609669226712e-05 -9.836930037686152e-06 -1.892777616277341e-06 
-5.93396764249892e-06 -3.103093426002279e-05 -5.225251467546672e-06 7.721195886943571e-05 -1.833566048262577e-05 -2.182104593244619e-06 
1.654464933065566e-05 -0.0004602468874227556 -0.0001065060925788838 0.0008048089594328766 -2.061100462156139e-05 -2.486858587231167e-06 
1.306532385232599e-05 -5.258620241941469e-05 2.521367769212746e-06 -3.467854152099161e-05 -1.216965945774549e-05 -1.836681068746947e-05 
-6.935181803820953e-05 -5.110343765574949e-05 -2.017222780750791e-06 1.215928581555379e-06 -7.042476727503941e-06 9.550103671552464e-06 
3.429401098886654e-05 -0.0005682787948668744 -8.318112719499422e-05 0.0007171301720222846 -7.659640349480105e-06 -1.030363559125085e-05 
6.513065574102164e-05 -1.002692710253029e-05 -2.414684444872554e-07 2.891398267144507e-05 -4.434135064941922e-06 -7.839487648262279e-07 
2.912246011351496e-05 -2.793234857373391e-05 -2.248255579331269e-06 4.217416453001107e-05 -7.82343398532141e-06 -8.679809996133295e-07 
-1.951773980405354e-06 -0.0004669800794315339 -7.452023486840318e-05 0.0007606218486216125 -1.292741561417594e-05 -1.333172560384297e-06 
2.926762397758049e-05 -0.0001089585705254357 -7.107541344038479e-07 -2.438866442385557e-05 -1.848165491651013e-05 -9.26095494119168e-06 
-0.0001000777316161642 -7.607593328971272e-05 -2.899021732235968e-06 2.269378265231486e-06 -1.13818959825174e-05 -2.207821487993498e-05 
4.201022792937819e-05 -0.0005196793522915489 -7.492184651424481e-05 0.0007335320372374973 -7.178754697472712e-06 -6.41561741065876e-05 
8.691044407162156e-05 -2.18429209002152e-05 -1.287381432302022e-05 0.0001658022222964445 -3.462945835795913e-05 -9.896950760292699e-06 
5.66284148538301e-05 -4.594077218322064e-05 -1.795517014880198e-05 0.0002139330191635198 -4.947997953909944e-05 -1.312406823158678e-05 
3.840140746201372e-05 -0.0005459048372640303 -7.343176631241974e-05 0.0008825097338842455 -4.530833985268142e-05 -8.160733035988206e-06 
0.0001425103351061751 2.1564466725236e-05 -8.958189148964306e-06 5.06509749958922e-05 -4.633110080060282e-05 -1.205683893835243e-05 
7.15205652441686e-05 -2.250195616816891e-05 -1.095652432727821e-05 9.305926211479843e-05 -5.166938181806086e-05 -2.135480636544388e-05 
3.990549069830341e-05 -0.000409964840795189 -9.264841510708914e-05 0.00080659084616114 -4.090115463546458e-05 -3.882121969019859e-05 
9.200346936836936e-05 1.426596933130156e-05 -7.204139195603364e-06 8.074012247386449e-05 -1.639848729852717e-05 -1.054388735925221e-05 
7.220617268305849e-05 -3.393632913150228e-05 -8.301659068223074e-06 8.830587501428204e-05 -1.987988736434546e-05 -1.3384152562509e-05 
4.099944572234494e-05 -0.0005651594495072661 -9.647052704018315e-05 0.0008210865087927944 -2.877693529966453e-05 -1.598646527024507e-05 
-0.000112951374463937 -2.402223046885186e-05 -4.858254481193335e-06 -4.225984204646787e-05 2.362941671368953e-06 7.804277459163038e-06 
-0.0001271403506400326 -9.5496640079156e-05 7.380831265324095e-07 -3.116593225265206e-05 -8.673089303768205e-06 1.230582445434383e-05 
-2.403707880543569e-05 -0.0004244003286440836 -8.571534569066361e-05 0.0006575670482592427 -1.935334269183724e-05 -3.216726554751312e-05 
9.690494515938178e-05 1.044285508956775e-05 -5.538464293087534e-06 5.135435785902336e-05 -1.060381582795251e-05 -5.361339909112187e-06 
7.498013279443581e-05 -3.137619264818878e-05 -1.041759413632485e-05 7.08505225151747e-05 -1.453127783175624e-05 -8.753757057941453e-06 
7.766767055086612e-05 -0.0003655938820572947 -7.625973838648206e-05 0.0007425404696484406 -2.273243184500633e-05 -6.263281593631894e-06 
-8.178184845628565e-06 -4.603087523337261e-06 4.800501589482265e-06 -5.778952044864179e-06 -3.413502158463607e-05 3.578169565065001e-06 
-1.255093964862794e-05 -7.118204078898488e-05 2.196315719281299e-06 1.420878846285949e-05 -1.854107720225723e-05 -1.826207961305487e-05 
5.261444657863748e-05 -0.0003024657008608354 -8.251160554408549e-05 0.0006701796952294733 -2.221483795859157e-05 -3.923956778887258e-05 
3.86477677418948e-05 8.186001213341743e-06 -2.532729252867485e-06 3.860825772917909e-05 -6.979033297771648e-06 -2.497933922131425e-06 
2.111372735578114e-05 -2.603471343399553e-05 -3.695671602253385e-06 4.8545293696293e-05 -9.250895215933373e-06 -4.759545308876589e-06 
2.816699883701972e-05 -0.0002071887867854573 -6.303419138934744e-05 0.0006789785749845712 -1.605868098323222e-05 -7.575014871882528e-06 
2.612099786576579e-05 -5.423516771747503e-05 2.309899600403196e-06 -1.437643314012381e-05 -2.468389922648482e-05 2.626389193156003e-06 
8.077984573838139e-06 -6.687747682729361e-05 -3.34350965619625e-06 -6.776989907679053e-06 -1.068114092630361e-05 -2.385240407495179e-05 
2.205975445251797e-06 -0.0002809627231041444 -5.665341971469952e-05 0.0006530241513196405 -2.91012483599443e-05 -2.544291803070827e-05 
0.0001654684546309374 3.840299775986766e-05 -1.688745234807691e-05 0.0001482772586896605 -2.574139917649436e-05 -8.940436663818623e-06 
0.0001136099395831539 2.447321080381887e-06 -2.233406779600839e-05 0.000162042105366761 -2.631841519196437e-05 -1.225554525135569e-05 
0.0001079064429336542 -7.968554811149774e-05 -7.990259309563177e-05 0.0008427403898565697 -3.813817080021413e-05 -1.949219901056763e-05 
-5.846749344513112e-05 -9.313509020075272e-05 2.674752948871592e-06 4.519514690893423e-05 -2.247936804759808e-05 6.545197823002544e-06 
-5.797016793988325e-05 -8.590781596526049e-05 5.074041501283518e-06 5.449575338040948e-05 -3.109686428484132e-05 1.988247302405531e-05 
5.149739224801168e-05 -0.0001508740622684907 -7.867713256443319e-05 0.0007414414319421575 -4.161036863546038e-05 -4.773780783314722e-05 
7.085284607104296e-05 -3.836626611301104e-05 7.084764635805037e-06 6.515301081595656e-05 -1.739606881361733e-05 -7.052475888734154e-06 
5.811444996175936e-05 -4.399617051854781e-05 6.637381253798328e-06 6.976289055880456e-05 -1.88796440064862e-05 -8.856963275954234e-06 
8.696185922263328e-05 -0.0001492903213171641 -8.180691855499632e-05 0.000775763417933582 -3.354015032424453e-05 -1.578937994759419e-05 
-4.597371483240216e-05 -0.0001062964153456892 -1.021431643656685e-06 -6.892015614121715e-05 2.762950691114961e-05 4.628835214999478e-06 
1.624651277981662e-05 -0.0001368546162534879 -2.566834699778442e-07 -5.33467545033891e-05 2.398887621757449e-05 -1.708318603201528e-05 
-9.210837310597818e-05 -0.000430669446087871 -8.058475804858434e-05 0.0006125059756658127 1.247431287955417e-05 4.602340859663007e-06 
4.856776140329559e-05 -2.044479997107818e-05 6.688481954557481e-06 3.321371279098263e-05 -1.045741682685762e-05 -5.29529413929479e-06 
3.963249573192092e-05 -3.476867166443618e-05 8.021720948004207e-06 4.308790066632574e-05 -1.230385802715059e-05 -3.285213007802556e-06 
-1.717797896435771e-05 -0.0002039964374464836 -7.522086402762268e-05 0.000699679052454553 -2.655705767901503e-05 -8.925348429450082e-06 
4.29893634932697e-05 -0.0001261260726888523 5.58827348296236e-06 -3.185249465871256e-05 3.865873842925457e-06 3.551571560431657e-06 
-8.570298526206767e-05 -4.537187042712168e-05 9.527683097849955e-06 -2.711115361451496e-05 6.696238111519361e-06 1.175844709893228e-05 
-1.454801300307836e-05 -0.0002872269151731212 -7.600096571842233e-05 0.0006825975288561612 -2.161403810943129e-05 8.973284800374543e-06 
4.069341609774036e-05 1.126914069212682e-06 -1.856206603155364e-07 3.098471559524297e-05 -9.180537359815551e-06 -4.390711469697308e-06 
3.486273780288271e-05 1.13424847820912e-05 -2.052362374614711e-06 3.814015473549513e-05 -1.112395410119319e-05 -6.058415619839346e-06 
1.32091713715949e-05 -0.0001623511622831445 -8.946767931070238e-05 0.000806163328637056 -2.38114625947279e-05 -6.887958908971495e-06 
-6.253460901780154e-05 -0.0001275495271929085 -5.555011774729815e-06 -2.93128543855206e-05 7.326867617654471e-06 2.200727373486673e-05 
-5.674433778305474e-06 -0.0001557018817473336 2.114915231048761e-07 -4.450304841455567e-05 1.470297862383206e-05 -2.159335163780178e-05 
-5.544133402579979e-05 -0.0002299228223903624 -7.373547436194448e-05 0.0006681896908961561 6.400197045885847e-06 -2.18968720718621e-05 
6.46421393799566e-05 3.330042435487415e-05 -2.620362021341899e-07 0.000116326735033471 -3.301483263498401e-05 -1.396485602342846e-05 
3.993086408543244e-05 2.269866236562936e-05 -2.219785964671172e-06 0.0001380383561628319 -3.9191793202657e-05 -1.434851970898397e-05 
9.7229749973938e-05 -4.995688879169259e-05 -8.339580584066096e-05 0.0008376351885830416 -5.280879722284186e-05 -1.704882783040986e-05 
3.640205181726342e-06 -6.509055147996708e-05 1.164811530430279e-06 5.634799619191394e-05 4.701442403727648e-08 -8.289678766732199e-06 
-4.217418049556026e-05 -6.572835463604399e-05 2.68484859490725e-06 5.21736798147717e-05 -1.313595590899258e-06 1.156530830802168e-05 
3.894236923371354e-05 -0.0006356882495536141 -7.969683579430696e-05 0.0008210053923185992 -3.384048240619442e-05 -5.653140019403157e-05 
4.937851171980457e-05 -2.138729281043574e-05 -9.713437840623869e-07 6.516586836566044e-05 -1.532323835139107e-05 -7.252485071060827e-06 
2.992695366423627e-05 -4.345286460994992e-05 -6.210761234137608e-07 7.553244807183038e-05 -1.723934085327229e-05 -8.827627027390839e-06 
4.773474625362948e-05 -0.0006586585251769356 -0.0001047136181995331 0.0008544849166108716 -2.937737728561133e-05 -1.614882189664433e-05 
-6.179989568991126e-05 -1.07748868741354e-05 -4.289874715041581e-06 -4.720967194869488e-05 2.659734798662495e-05 -4.904854512337359e-05 
-6.335906342814326e-06 -4.019407682182431e-05 -5.143066551000282e-06 -3.536638837093966e-05 1.997500518967024e-05 -5.395516970656135e-05 
-1.224935981322572e-05 -0.0006745242738118403 -0.0001070114638721434 0.000723441961513737 2.938926602010625e-05 -8.170753158568868e-05 
7.724096145180122e-05 -1.069321894265269e-05 -2.946537060250402e-06 5.098523767229149e-05 -1.168807104219877e-05 -4.31310771523364e-06 
3.116395825483656e-05 -1.878224055528773e-05 -1.416721446280267e-06 6.219628662473598e-05 -1.6264884484244e-05 -3.711660564377136e-06 
3.81561822125858e-05 -0.0006581113293295196 -0.0001118604698858261 0.0008181742593505783 -2.310752026175497e-05 -1.393207590801698e-05 
5.277829478367527e-05 -6.852758092199499e-05 -4.056277422591103e-06 -2.266024259312146e-05 -3.711917784884317e-07 -4.953286446424441e-06 
-1.201861541172582e-05 -3.566980235685765e-05 -1.838069549147837e-06 5.960795486769047e-06 1.332203896496332e-05 -2.99650391017221e-05 
7.693901740609717e-05 -0.00059864195679116 -8.558453341917219e-05 0.0006977082143530298 -2.669024711503181e-05 -6.225294247333664e-05 
5.737622999403978e-05 -5.609300014676236e-06 -7.839868230930747e-07 3.655475519256844e-05 -1.054789606205162e-05 -3.560481822542946e-06 
2.73662885623445e-05 -9.955065137979427e-06 -1.866741736340448e-06 4.599997049758277e-05 -1.234243816027876e-05 -3.297657003948653e-06 
-4.424577910101232e-05 -0.000271210463241878 -4.817330148652934e-05 0.0006349833432369028 -2.223891923799016e-05 -6.580971394011669e-06 
6.44224302342276e-05 -2.823866830216086e-05 -5.416589290101459e-07 -1.174769387125138e-05 9.805386245043619e-06 -6.905814173716388e-05 
3.65192986954585e-05 -3.813688032600661e-05 -3.803691385812605e-06 2.940977312854226e-06 1.034624399253658e-05 -5.712145007460641e-05 
-1.384308644230306e-05 -0.0002752300390511558 -4.583619989312564e-05 0.0006398631525112469 -2.06558337051141e-05 -6.991166436293819e-05 
0.0001051548170151928 -3.226357922863436e-05 -9.366214201544549e-06 0.0001660609297790901 -3.598865688304215e-05 -1.46078366733706e-05 
4.651192488763961e-05 -8.511597722700015e-05 -3.547036248372743e-06 0.0001686678265398406 -3.827136458886503e-05 -1.539278231307259e-05 
5.01455228171967e-05 -0.000472819921632416 -6.480532785318992e-05 0.0008979590690562408 -5.588501982969387e-05 -2.97838711949081e-05 
0.0002257507772228749 3.7083902451626e-05 -4.720975528005161e-06 -1.058206523496774e-05 -8.22277848601078e-06 -5.14328319041954e-05 
8.971623835233795e-05 1.241526545651007e-05 -4.9875917106904e-06 5.527664598363242e-05 -2.033919901653733e-05 -1.68367140749358e-05 
0.0004765987547912146 -0.000426812090019094 -6.131762665441968e-05 0.0006697928353671301 -3.490142740571349e-06 -4.96179691705881e-05 
5.931552233432713e-05 4.416393487665302e-05 -1.743695678514882e-06 4.142640052157856e-05 -1.180780071642182e-05 -2.809371505482073e-06 
3.235547332750109e-05 2.146878692921128e-05 -2.517783792723757e-06 7.29383227080001e-05 -1.758090425305323e-05 2.179236497800473e-06 
0.0003386189875012346 -0.0003916116225389893 -3.694226609919753e-05 0.0006973765162269137 -2.737436138265065e-05 -7.105425999903413e-06 
-0.0001272482578027697 2.80856957671506e-05 -3.564505206491415e-06 -5.66379861110703e-05 1.521121141216514e-05 2.410928227890947e-05 
-7.51845198130681e-05 -1.740403031346876e-05 -3.655771283539332e-06 -4.893394022953459e-05 2.915970795135315e-05 1.347155704456555e-05 
0.0002986076350255787 -0.0006347174429202955 -4.829592480422799e-05 0.0006388470127170902 1.42129633971973e-05 -1.101599267846379e-05 
4.958460329521349e-05 -9.193848490505168e-06 -3.54869275684404e-06 3.045442004685534e-05 -6.478857225036387e-06 -1.394867144762169e-06 
3.346665885732954e-05 2.765316981716003e-06 -2.83781572578018e-06 5.904304729160323e-05 -9.812197179976005e-06 3.572010139331494e-07 
0.0003630676547715457 -0.000909017902937213 -6.467675245476926e-05 0.0008010282182154514 -1.960130872651192e-05 -4.475796423512119e-06 
8.697879107419535e-05 2.29608211049212e-05 4.691157945976945e-06 -2.579677796287499e-05 -9.547383562049344e-06 -5.451751317471484e-06 
7.441940042590915e-05 2.311968164569468e-06 -1.965409241418927e-06 -5.441039187590363e-06 -2.268186482575925e-06 -3.662471032180799e-05 
0.0004636157762060627 -0.0008178955334062858 -0.0001033286809705962 0.0007561583526652374 -7.697047331500375e-06 -4.664316324338516e-05 
6.92622432831836e-05 -7.494191564945028e-06 -4.745868170358237e-07 2.435410958304553e-05 -3.264095645434779e-06 4.033262620315662e-06 
4.410430400478414e-05 -6.406844243368613e-06 -7.128834052700259e-07 5.072641869235747e-05 -7.464776816063749e-06 3.931015126544079e-06 
0.0003600465822173524 -0.00085223352322379 -0.0001113967958610522 0.0008372102153238523 -1.273974478738541e-05 2.334738486624786e-06 
7.652200800897617e-05 -5.617625011424319e-06 2.826996607591045e-06 -6.290707187657679e-05 -1.194749863827814e-05 -2.035687894492072e-05 
1.77446004405897e-05 -1.952427611190682e-05 -1.33908305417097e-06 -2.569984783115046e-05 -5.752242996090899e-06 1.668651182379224e-06 
0.0003237429432690431 -0.000638785389414411 -0.0001109042654501949 0.0006969053597760215 -4.753183761956364e-06 -2.090165824003486e-05 
0.0001337129583618924 -1.793448702781101e-07 -6.166097468742251e-06 7.967308007684211e-05 -1.413719011278843e-05 -3.243105324953777e-06 
0.0001011219981144742 -6.848034129146728e-06 -5.839003148226683e-06 0.0001155706375527416 -1.672733626592109e-05 -4.054505087368115e-06 
0.0004109872669750755 -0.0003851809350669514 -0.0001066562988580593 0.0007819575366646836 -2.023454091118656e-05 -7.010994127673463e-06 
2.035264851512255e-05 -4.312438661128205e-05 -4.059669849257321e-06 -1.775603447105229e-05 -1.837344332648477e-05 1.677126076702037e-05 
-2.264479956851341e-05 -5.634250225267583e-05 -7.355012363640781e-06 -8.719464041861178e-07 -1.103554040280166e-05 3.815395354658728e-05 
0.0003204189236507569 -0.0007801058228532409 -0.000124251446644148 0.0006809057600245319 -4.765576571711207e-06 -7.89322370866933e-06 
2.406169359008824e-05 8.722471645986568e-06 -1.591470125024003e-06 1.126537228646581e-05 -1.094131172693027e-07 3.389533615772662e-06 
6.832760918941758e-06 1.078705596437846e-05 -3.095563162317887e-06 1.670505089567644e-05 -1.548932023306372e-06 3.992118631586952e-06 
0.0002957606276333302 -0.0006068497993708875 -0.000128491260282815 0.0007051611831699703 -9.713349063416374e-06 -1.646569328409361e-06 
-4.730631431814123e-05 -5.607619542404566e-05 -4.168247929196558e-06 -4.044882863344657e-05 -7.072333677171215e-06 5.639329797416707e-05 
3.668492304945239e-06 -3.732388896674843e-05 -4.047405132213641e-06 -3.286909488027147e-05 -1.118091845999791e-05 -1.032972419270102e-06 
0.0001071238625079625 -0.0004320482214869976 -0.0001149612082119441 0.0006324976155577877 -2.823290042680115e-05 2.185416807812869e-05 
4.060490181041885e-05 2.066699205710822e-06 -2.04921034241773e-06 1.183736031047435e-05 -2.188262345386109e-07 -7.089519704893104e-09 
1.221431490071744e-05 1.994250490740652e-05 -3.299433221771168e-06 1.701368273217823e-05 -3.647104053333554e-08 1.027979838477726e-06 
7.346868066163595e-05 -0.0003843378924869641 -8.311794131513049e-05 0.0006548213168650476 -1.276624805290932e-05 -2.522883303432004e-06 
-4.023559685079172e-05 -7.302660825070419e-05 4.850458906232763e-06 -4.020715925606024e-05 -2.229627605202014e-05 -1.003100005268157e-05 
7.794274793229289e-05 -7.329913043337996e-05 4.625738761351329e-06 -3.086249441828501e-05 -2.33741388867784e-05 -2.277566029563844e-05 
5.583347731470715e-05 -0.0006544518796463843 -4.127162117296348e-05 0.0005950303392906479 -1.06755236740581e-05 -2.568070188982591e-07 
3.603508805283256e-05 -9.864095804878212e-06 -1.336721762824158e-06 1.320162674649396e-05 -2.188262345386108e-07 -4.921672086614727e-07 
1.249325825664099e-05 4.130221080916779e-06 -2.308513605350463e-06 2.088264292025025e-05 -3.647104053333602e-08 6.097609446184701e-06 
6.299791230487583e-05 -0.000669961987643041 -5.654266803723433e-05 0.000666298454310261 -1.78790516977156e-05 -8.50480203775778e-06 
8.450733928271836e-05 -9.842784263191352e-05 2.992677490938853e-06 -2.586192626339899e-05 -3.415640771680024e-05 -9.775444907432753e-06 
2.560195086596975e-05 -3.044204198779624e-05 -1.985620667758853e-07 -2.09320142883689e-05 -2.515154523048303e-05 -1.321336902843042e-05 
0.0001335568103595054 -0.0008205399615572748 -8.358710079983904e-05 0.0006527704582383922 -4.130101686353217e-05 7.183822138960355e-06 
9.52511514523847e-05 -5.511721911806896e-06 -9.816819435339721e-06 5.554256802138702e-05 -6.200076847360009e-07 -1.870177632173001e-05 
1.746105640095348e-05 2.697730862322513e-05 -1.19175786128111e-05 6.392642074814445e-05 -1.82355198335978e-07 -6.355710640684905e-06 
0.000277582787042664 -0.000824656091793743 -0.0001078649697615502 0.0007454004928353768 -1.175778594727705e-05 -4.662303571207896e-05 
9.599145091793058e-05 -6.044884716029824e-05 -4.273466940025508e-06 -6.119494227200562e-05 -3.272981291312295e-06 -1.139671784740337e-05 
9.098039241447511e-05 -8.513019197703676e-05 -1.654519650343526e-05 -4.805099835097186e-05 9.86667509467367e-06 2.356014916272015e-05 
-0.0001566299741906434 -0.0009155868528099209 -7.863052992757874e-05 0.0006428146825846211 -7.117545888429633e-06 6.058091098823163e-05 
2.148123456344082e-05 6.307782557442933e-05 -2.81410179399863e-06 7.484336802360048e-06 -9.805982138552201e-07 1.093534092264351e-05 
2.391115444302376e-05 9.608924499935385e-05 -4.366489099529826e-06 1.662674541709027e-05 -1.809454977206958e-06 3.954078553337277e-05 
-0.0001058990309767833 -0.0007918593593486044 -8.261467018048971e-05 0.0006921497167000337 -2.476787043524206e-05 4.033363910714725e-05 
-1.891235036424851e-05 -2.387589110252173e-05 4.946447530975829e-07 -6.877595923315781e-05 7.57289438914053e-06 3.672155433123382e-06 
1.831991571402246e-05 -5.393897809998935e-05 3.873870665927831e-06 -7.23706762443357e-05 1.588846494157706e-05 4.380766469515824e-05 
-6.841055263662981e-05 -0.0008563018127858052 -7.986536923944847e-05 0.0005881848079075349 -2.686040077367698e-05 2.328680231894217e-05 
3.048964816781422e-05 6.807080600429036e-05 -4.165614450644219e-06 1.856979205108222e-05 -1.087445542346453e-06 4.881421696038162e-06 
4.081307811512649e-05 5.41072322573061e-05 -5.647890936887331e-06 2.458645360009471e-05 -1.781062704934031e-06 2.555599862712025e-05 
-3.611318665459904e-05 -0.000672693600190484 -0.0001054852506965739 0.0006984677582051777 -2.725899018042054e-05 3.568981974077089e-05 
-6.185858646258276e-06 -5.402144353774708e-05 -7.573823833957172e-06 -6.415099868030672e-05 2.906102607348435e-05 2.690352511088556e-05 
5.459488066972703e-05 -5.376434507274134e-05 -7.156316827867812e-06 -4.966257944548794e-05 2.477800282785916e-05 1.617671168920145e-05 
-8.210153869253475e-06 -0.0006078780228953784 -0.0001202079455569023 0.0006660361058486137 -2.537591429761265e-05 3.318223753564396e-05 
5.823006153540303e-06 4.740222609903254e-05 -1.894461992112705e-06 1.055126339635396e-05 -8.609430231548411e-08 6.23247659659563e-06 
8.76092929557094e-06 5.526280416507908e-05 -2.606950612872369e-06 1.458345237932162e-05 -1.147924076309335e-07 3.125085027309227e-05 
-9.616448498031095e-05 -0.0004233766348801082 -0.0001247573482230727 0.0007471668464477098 -2.404303707267099e-05 3.636913730332119e-05 
-1.394451573967988e-06 -1.218421580163623e-05 1.493400047975438e-06 -5.330021741282951e-05 1.126237258017261e-05 2.263869249710921e-06 
3.810943440215595e-05 -4.243062068092559e-05 -1.879165037160275e-06 -5.858341643601938e-05 -1.974103090090996e-06 8.687215842207966e-06 
1.812129276457551e-05 -0.0005475924813258506 -9.004269256300375e-05 0.0006924386280549584 -1.761147444502819e-05 3.908208968843435e-05 
3.906603202730298e-05 7.658692990804547e-05 -1.515509413547154e-05 5.415962735535391e-05 -3.236096603743595e-06 2.219211384266084e-05 
5.502940513297731e-05 8.4731809490949e-05 -1.49765931439913e-05 5.158917491234946e-05 -4.915474566053848e-06 4.743827248709271e-05 
-3.891580423784618e-05 -0.0006396350978633671 -7.993009779524543e-05 0.0007961198565337545 -2.651620180130962e-05 6.504119175365691e-05 
-5.349584697103095e-05 -2.43034298377901e-05 -2.044727718206202e-06 -8.648373235001659e-05 3.088865458925602e-05 1.283667713759745e-05 
9.571587071289028e-06 -0.0001048193770493425 5.826769665800421e-06 -9.165024787577747e-05 4.968166312464821e-06 1.475802264774602e-05 
-0.0001574757664689184 -0.0006289331541139885 -0.0001022946576870609 0.0007643881707686253 -4.324270332878903e-05 6.579635469759618e-05 
-0.000102502346816157 0.000258599791125158 2.679817783852038e-06 1.949708743130387e-06 -7.104109290257524e-06 2.015218648808686e-05 
-1.369127014569872e-05 0.0001757904336939509 4.151067699131819e-06 -3.854184274126e-06 -4.395692792984997e-06 -4.548890423499656e-06 
-0.0001551103007202509 -0.0004213991023223282 -8.269018950414813e-05 0.0008582431795505185 -4.077151349345286e-05 2.225684698518093e-05 
-0.0002226097484537665 0.000118033342543811 1.874191929506684e-06 -7.172039669124014e-05 2.885028351211079e-05 6.006722819609597e-05 
-6.635842905131034e-05 2.312137874862442e-06 -1.840587388202282e-06 -5.970168329483452e-05 2.324550758022068e-05 1.66954050983801e-05 
-0.0002072818177707982 -0.0006444856497696551 -7.658661755512076e-05 0.0007394209875505352 4.09445915074331e-06 -2.270984098871941e-05 
-9.792340605840304e-05 0.0002148859532528597 1.068060875536901e-06 -9.271692509753018e-07 -5.702299386906016e-06 -1.307729881263872e-05 
-1.695121047272342e-07 0.0001394395760855843 1.907358509754469e-06 3.383901832674036e-06 -3.988536132864252e-06 -1.763864883670144e-05 
-0.0001421793628710184 -0.0005737842152936372 -7.866036298791546e-05 0.0007789035302422813 -4.068975348888294e-05 -3.895020834039871e-06 
-0.0001305184475121378 4.768135431729576e-05 -1.041713459020537e-05 -7.47160211659019e-05 4.155146729475925e-05 -2.715503577529206e-07 
-2.35508045677023e-05 -3.127554422097992e-05 -9.919600289191674e-06 -6.157334042584598e-05 3.271928480078296e-05 -3.569954216043528e-05 
-0.0002504354985958632 -0.0007110389059915093 -7.802727312627889e-05 0.0006468938953203223 -8.505405507844501e-06 3.176470762993144e-05 
-0.0001853536267776887 0.0002698158822866633 1.247334405783235e-07 9.298453906328373e-06 -2.724392795382849e-07 7.033226348210927e-06 
-9.717408888957234e-05 0.0001775741381495593 3.591681040510268e-07 8.993524526370314e-06 1.910500503950789e-06 -2.742281151647421e-06 
-0.0003812901197869175 -0.0005074157356365691 -6.342198658376849e-05 0.0006424100442876447 -2.980322693539817e-05 2.080118852830653e-05 
-0.0001228111591789794 3.947930268400701e-05 5.220345102500266e-06 -7.625223996203271e-05 1.42282096303696e-05 4.690713919440615e-05 
-4.412676200526523e-05 -5.055764056402075e-05 -1.671858471758177e-08 -8.496662480602631e-05 1.384849804329071e-06 3.244281673688299e-05 
-0.0002890436221924207 -0.0006036099136598801 -6.066556105760905e-05 0.0005576635733766918 -2.687498989144774e-05 3.734674935819091e-05 
-7.41193179273972e-06 5.038532734446265e-05 -2.677119061132555e-06 1.333943658946287e-05 -2.247190439466848e-06 -6.820559130152363e-06 
6.975422209837512e-05 -8.569629468220282e-05 -4.822529126579008e-06 1.075181762979962e-05 -3.941302749770225e-06 -2.179643893234333e-05 
-7.763180570814586e-05 -0.0006041739069977295 -9.635019617395213e-05 0.0007529174028660704 -3.679563079813662e-05 3.245351219933343e-06 
-8.538710126325221e-05 -0.0009398400559087056 0.0008307056476656512 0.000526032803484619 -0.001887924671127704 -0.005246603512105283 
-0.0004090803559392059 -8.214184540149241e-05 6.80442080590677e-05 0.0002853225793921808 -5.79466549796468e-05 0.0003457450151364871 
-0.0004664088852483584 -0.0006224410433813072 4.787615773419752e-05 0.0001610601930365504 -6.726459211325917e-05 0.0001507399605551287 
3.102904314309466e-05 -0.0003102778081490571 6.321229240629067e-05 6.29319514546588e-05 -5.896893418434017e-05 0.0001189363559470952 
-0.0006667714910895338 -0.0003982573288415765 -2.523616623755315e-05 7.421383227131011e-05 -2.81661378826033e-05 0.0002978887157640829 
6.28704663530608e-05 3.296183596913106e-05 -1.630831238487454e-05 8.767009485717788e-05 -7.6009840294742e-06 -4.836963495230404e-05 
-0.0007354241338812567 5.819053428052126e-05 1.07675684021249e-05 7.272009004221583e-05 -3.179202871926345e-05 0.0001543820079427595 
-0.0001860689868312593 -0.0002547541004007303 1.694349857004083e-05 4.004956526162778e-05 -3.781734141819336e-05 1.365411989361075e-05 
-2.193799345525979e-05 -6.273734394980155e-05 3.158190655536873e-05 0.0002883233045150115 -0.0001280294191730104 2.511881785199554e-05 
-0.0003303290636752614 4.023519907044408e-05 0 5.1812563889571e-06 -7.411538288475128e-22 7.920703265890085e-05 
-5.045075479173426e-05 -6.031278090637503e-05 1.540774328123332e-05 -4.299893487236103e-06 7.73322960554884e-06 3.335440141189088e-05 
5.680511229223064e-05 8.470329472543003e-22 0 4.764560328305439e-22 -1.767791613007588e-06 0.0001252333026289669 
-0.002608324919057343 -0.0006696844923878141 1.647847921976699e-05 -2.95726872268714e-05 0.0001350741107198204 0.00115748430179773 
-1.111730743271269e-20 -3.187291258107692e-05 -2.336746584399687e-05 8.053013686574856e-05 -1.59223605000467e-05 1.292509916912245e-05 
-0.002758355618706064 0.0005420206493232644 5.864109106440742e-05 -0.0002378914924055529 0.0001944952709286455 0.000609902487118289 
-0.0007873408291277611 9.468930597255003e-05 0.0001571196441847544 -0.000258085179811427 6.926570239248293e-05 -0.0002148997899538692 
-6.089941682571874e-05 0.0001002355246591036 1.230197109838241e-05 0.000407867227303948 -6.728788021593731e-05 9.68888750616927e-06 
-0.0001651645318376308 -1.426088447110235e-05 -7.478797592232445e-06 3.717917400101874e-05 7.713714156611476e-05 6.893490796255347e-06 
-0.0004257519537449424 5.826119703845265e-05 0 1.058791184067875e-22 -6.697296097209858e-06 0.0002630759363917368 
0 0 0 0 0 0 
-1.825611154469101e-05 -0.0002071964395240572 1.647022857281308e-05 -6.145136287169657e-06 3.866614802774413e-06 0.0001122583226371527 
-2.983925156737655e-05 4.197432762065087e-05 0 5.048214968067598e-05 -1.446395903635221e-05 0 
9.589639330348858e-05 8.795123517509776e-05 8.190427527040858e-06 5.048214968067598e-05 -1.446395903635221e-05 -3.366598545676084e-05 
-0.0001651645318376309 -4.739800401887483e-05 4.089580948462169e-21 -2.245972426541532e-07 -5.293955920339377e-22 2.794544842058944e-05 
9.493110931277726e-05 0.0001941055608536947 6.696757669433725e-07 0.0001612278398693568 -2.401563506188635e-05 -0.0001133265643708513 
0 0 3.85215962658395e-05 -3.485253876484904e-05 -1.928464477652788e-05 -3.490850566175154e-05 
-3.543788991638344e-06 2.30614204934378e-05 8.190427527040858e-06 5.048214968067598e-05 -1.446395903635221e-05 -3.26259180968464e-05 
2.203609151841266e-21 0 7.217315754192512e-06 -3.824167777061351e-05 7.733229605548833e-06 1.023056981605585e-20 
-0.0006012012801526309 -0.0001065861090691052 3.242548001207868e-21 -6.074448234174654e-05 -2.967406500756992e-05 0.0003608834071745243 
0 0 0 0 -2.005912985441092e-23 -5.823351512373315e-22 
-0.001309865207338373 0.0004207871891282363 -6.537423596990631e-05 -6.271629792015336e-05 0.0003127884948540687 0.0005458378645786585 
0.0001826922510743179 6.886533465005136e-05 1.423150878600171e-05 6.521771517399957e-05 4.334805739278762e-05 -4.032004886343614e-05 
-0.0009322336388804367 -0.0004126771772128747 2.156889820576153e-05 0.0003160384388671455 -0.0001093634560425316 0.0004176430223508615 
2.126841048509516e-05 -0.0001163232600051804 1.769529113000774e-05 0.0001760431820792038 -4.339187350246112e-05 4.78636704571476e-05 
-0.0001124363538835919 -8.263839496198598e-06 7.940933880509066e-23 6.352747104407253e-22 -1.159586996987448e-05 7.731072660095601e-05 
8.158890774562284e-05 7.543887186483612e-22 0 0 -1.058791184067875e-22 -3.847295097597957e-05 
1.270549420881451e-21 -1.484474975555791e-05 -8.806597942568743e-06 0 2.313505594658404e-05 9.272658670296054e-06 
0 0 0 5.048214968067598e-05 -1.446395903635221e-05 0 
-0.0001170531504353288 3.361795642797303e-05 -4.632211430296955e-23 -1.781164722387881e-05 5.192805573251475e-06 -5.064559875290219e-05 
-0.0002716508656265621 -0.0001372348166229685 -3.469219580074525e-06 3.506083970556781e-05 1.058791184067875e-22 7.953745868033201e-05 
1.715241718189958e-20 1.195063750140016e-05 -8.806597942568743e-06 3.720355605521874e-07 3.974665259541622e-05 5.287435140438236e-05 
0 0 0 0 0 0 
0 0 0 0 0 0 
0 0 0 0 0 0 
-0.000126271567889492 2.646977960169689e-22 0 0 2.646977960169689e-23 1.438279064952407e-05 
0 0 0 0 0 0 
-7.92237650026286e-05 2.596302107786281e-05 2.410052008372658e-05 5.461006645272856e-05 4.319194243463986e-06 3.245844174591099e-05 
-0.0001624144648405015 -6.822848955784767e-05 -2.336746584399686e-05 -8.830033368991191e-06 -1.521010597121773e-05 4.764560328305439e-22 
0.0001403775374243308 -7.720175567947513e-05 1.529392214115778e-05 -2.782659853521919e-05 3.974665259541624e-05 0.0001231948694985573 
0 -4.787884089907534e-05 1.217609861678057e-21 8.766132368169477e-05 6.267318252976233e-05 -3.700214788128301e-05 
-0.0001457089557931261 2.951380425589203e-21 1.769529113000774e-05 2.482134286757947e-05 0 9.835343737684396e-05 
5.888852891371378e-05 -9.869856894863551e-05 -8.093302879185435e-06 6.107819511002784e-05 -1.446395903635221e-05 -4.170265846153909e-05 
-0.0001208817154455243 2.646977960169689e-22 -6.091786697572566e-06 3.034650543253606e-05 -2.629677135545626e-05 -4.051244436277305e-05 
-1.058791184067875e-21 2.306142049343778e-05 8.190427527040857e-06 1.997754597975285e-05 -1.058791184067875e-21 -3.705769144237564e-22 
-0.0002175081045365039 -0.0001826375700504394 -7.411538288475128e-22 3.931853003246789e-05 -1.707188439787e-05 0.0002563939253872027 
-0.0002144185067269811 -3.232590301303164e-05 -2.945925254156942e-05 9.456087414364015e-05 -4.235164736271502e-22 -1.969351602366248e-20 
0.001412980918762574 0.000691672245223132 5.045227490760883e-05 -0.0001265612322104872 4.066588725269299e-05 -0.000605451800365295 
-0.0004846015163545898 -0.0001068617391909944 -3.639594695233322e-22 -5.036434914814436e-05 0 0.0001994162911477708 
3.300410267520648e-05 7.67801574343851e-06 -6.927722727882849e-06 4.641917641826621e-05 -5.293955920339377e-22 3.758708703440958e-21 
-2.181634834595071e-05 -9.860948251644637e-05 -7.803709852875785e-06 7.304801012209023e-05 -1.661159664883214e-05 2.435219723356113e-21 
0.002998617412119296 -0.0002532212241247708 0.0001301870104839386 -0.0006210366066381499 -4.026946232182322e-05 -0.000940785489594143 
0.000350274266746758 -0.0001272894778703506 1.001715721801717e-21 2.515880236870996e-05 -1.767791613007583e-06 -9.75801706514838e-05 
1.360614305905083e-05 -0.0001800363837122968 2.961953195107209e-05 3.48690084984885e-05 -6.681691246347592e-05 -3.333769078524493e-05 
-0.0004680882996834378 -0.0002235255486992086 6.083913405327519e-21 1.961758388441793e-05 7.713714156611474e-05 0.0001281203656199927 
0.0007373670951596331 -7.041605305418443e-05 0.0001518865948510189 0.0001059873379248046 -9.907069629117896e-05 -0.0001396256079649813 
-0.0001648121735534992 4.722967207713604e-06 -3.639594695233322e-22 -5.036434914814436e-05 -9.352736667309546e-07 -9.529120656610879e-22 
-0.0001947122467395356 -6.031278090637503e-05 -3.176373552203626e-22 6.788356856675448e-05 -2.072401253430834e-05 0.0002496320812503158 
-3.016429670146095e-05 -0.0001816038116749558 -3.439302703660629e-05 2.991784515963015e-05 2.229566858752372e-05 -0.0001240014662695975 
5.950982917494982e-05 0.0002824936343556945 -1.618660575837087e-05 -3.85240080155134e-05 -6.697296097209857e-06 0.0001040900138466485 
5.823351512373315e-22 9.921322492226476e-05 -2.336746584399686e-05 2.640783147821285e-05 2.646977960169689e-23 1.438279064952407e-05 
-3.543788991638347e-06 0.0001135964471257786 -7.940933880509066e-23 -3.864752949514121e-06 8.470329472543003e-22 3.842419267984064e-05 
-0.0002144185067269811 -0.000127369746873353 1.001715721801717e-21 4.638004954219227e-05 2.117582368135751e-22 7.411538288475128e-21 
-1.090817417297538e-05 -9.204971432884697e-05 -1.38554454557657e-05 4.972963797369304e-05 9.731779906686371e-22 -1.579685438562768e-05 
0 0 0 0 0 0 
-1.588186776101813e-22 -6.368487343667651e-05 8.190427527040858e-06 -8.470329472543003e-22 -1.058791184067875e-22 0 
-1.763395940989899e-05 0 0 3.394178428337725e-05 0 1.020266454617754e-05 
-0.0002144185067269811 2.951380425589203e-21 1.769529113000774e-05 -9.120441415797866e-06 0 6.352747104407253e-22 
0 0 0 5.048214968067598e-05 -1.446395903635221e-05 0 
0.000125789293146797 9.921322492226473e-05 -6.923501727068842e-22 1.611279303023872e-05 7.411538288475128e-22 -3.847295097597957e-05 
-0.0001675472190560367 -0.0001260964734154539 2.395515053953568e-21 -1.693820514888345e-05 -1.852884572118782e-22 0.0001247553972397517 
-3.903652071578827e-05 -1.11107829920377e-05 9.550289845380881e-06 4.715135511947128e-05 -1.316862953973058e-05 1.171390085090363e-07 
0 0 0 0 0 0 
1.058791184067875e-21 2.306142049343779e-05 0 0 -2.117582368135751e-22 0 
0 0 0 0 0 0 
-1.090817417297537e-05 0 0 6.107819511002783e-05 -1.446395903635221e-05 0 
0 0 0 0 0 0 
-0.000126271567889492 0 0 0 0 5.293955920339377e-22 
0 0 0 0 0 0 
0.000156320634664264 -5.091921965545243e-05 -4.289508601375181e-05 0.0001506218651932453 -4.235164736271502e-22 4.774373931253638e-05 
0 1.86611946191963e-21 1.769529113000774e-05 -9.120441415797866e-06 0 0 
-1.47535934054958e-20 -7.577583085944505e-05 2.117582368135751e-22 -1.597284047661297e-05 1.588186776101813e-22 -7.230411852715974e-06 
0.0001093854490713306 -6.031278090637503e-05 0 -7.940933880509066e-22 3.425013960243878e-06 -3.909838062666944e-05 
7.111668431128631e-05 2.306142049343781e-05 0 -5.293955920339377e-23 -3.176373552203626e-22 -8.304596433431668e-05 
0 -6.368487343667651e-05 3.556876633978019e-23 0 -1.058791184067875e-22 0 
-7.536500657005903e-05 -4.034895022177893e-05 0 -2.117582368135751e-22 -1.159586996987448e-05 -1.841253829361187e-06 
-4.285933680576603e-05 2.306142049343779e-05 -5.293955920339377e-23 2.640250356243925e-05 -2.117582368135751e-22 2.687986525212296e-05 
-0.0003527987449648384 -0.0003130376368291612 9.861689330751035e-05 9.419239359398009e-05 3.821272412985517e-05 -1.997266948627688e-05 
-3.403102401520974e-05 1.769005901176162e-05 -6.091786697572566e-06 7.417910028787125e-05 -2.376918049507985e-05 0.0002143028319514157 
0.0001306769160734835 3.361795642797301e-05 -2.336746584399686e-05 0.0001071572376708422 -3.107555568518454e-05 -8.540300788607434e-05 
0.000200943460986089 3.804030826458618e-06 0 3.483275683063103e-07 -1.487798027987561e-05 -8.306405050183546e-05 
-0.0002153287386935476 1.628686941780178e-05 1.769529113000774e-05 -5.948479056394227e-05 0 0.0001135725072472835 
0 0 0 0 0 0 
0 0 3.838118042246048e-22 -4.969866322607e-05 -1.521010597121773e-05 0 
-0.0001457089557931261 8.795123517509776e-05 -7.478797592232446e-06 1.058791184067875e-22 0 9.835343737684393e-05 
0.0001751674067682404 -1.865960653193161e-05 3.242980956826691e-05 -3.090853689475235e-05 -1.928464477652788e-05 -0.0001324886763132362 
0 0 0 0 0 0 
1.376428539288238e-21 -1.804864012863662e-05 0 0 -2.646977960169689e-22 1.900813246818416e-05 
0 0 0 0 0 0 
-0.0003163327968999123 -2.625416193719684e-05 -9.380589656991711e-06 7.045969566042886e-05 -2.290712512501815e-05 0.0002116240661432733 
0 0 0 0 0 0 
-2.983925156737649e-05 9.099876919195107e-05 2.804296051321912e-05 6.907361895983199e-07 -2.607925361517844e-06 0.0001479118930367366 
1.397462747431276e-05 2.633998825972115e-05 2.226393394815066e-05 5.02575524380219e-05 -1.446395903635221e-05 1.62226565012479e-06 
-0.0004843485786229455 -0.0003794200334206558 -0.0001774519637375117 0.0005830609906393676 -2.765015905320807e-06 -0.0001114094410907514 
3.300410267520648e-05 -5.016735016653117e-05 2.646977960169689e-22 7.207543241471041e-05 -1.446395903635221e-05 -9.252178557677999e-06 
8.05127092175662e-05 -3.699032007444507e-05 -3.029518857187974e-05 0.0001563045210267844 -1.446395903635221e-05 -2.493440005832318e-05 
1.397462747431276e-05 -8.10788660589686e-05 0 0 0 9.272658670296054e-06 
-0.0001212005347895794 -1.11107829920377e-05 0 0 -1.661159664883214e-05 4.781320624113279e-05 
0 0 2.117582368135751e-22 -4.809220828404916e-06 0 -7.230411852715974e-06 
2.779326858178173e-21 1.111730743271269e-21 9.55028984538088e-06 2.112202430233541e-05 2.117582368135751e-22 1.323488980084844e-21 
0.0001306769160734835 -1.244079641279754e-21 8.190427527040858e-06 -1.747005453711994e-21 -3.176373552203626e-22 -0.0001253487428516146 
-0.0001369308926352935 -0.0006268881617934896 -0.0002120180547454761 0.001226518784859731 5.260636667916473e-06 0.0001219241603616 
-9.211483301390516e-21 3.560185356428231e-21 1.769529113000774e-05 -9.120441415797866e-06 -2.646977960169689e-23 1.058791184067875e-21 
4.198066201292584e-06 5.14377440355637e-06 -3.119774487031774e-05 9.133777232362714e-05 -1.349958759686541e-21 2.099824903020705e-07 
-0.0001212287832496504 0.0002523288047404555 -1.376547759317455e-05 9.16912018975208e-06 -4.18553389951832e-22 -3.176373552203626e-22 
-0.0003769706035773787 0.0001138515726927213 -1.689594929635128e-05 3.663103834300153e-05 5.98995325204473e-06 0.0003262018640355993 
-1.588186776101813e-22 0 3.970466940254533e-22 2.913256345497243e-05 0 -7.230411852715974e-06 
-0.000437853442371836 -0.0001089333291039072 -3.45618892598615e-06 9.509817423721205e-05 3.658248782598783e-05 0.0001813614775102069 
-0.0002391770563558379 -0.0001904042947535422 -1.139608157288032e-05 0.0001149651363133565 -8.234329393522074e-06 0.0001607990520205116 
0.0008232694222897283 -0.0003744276435391207 5.638108921376967e-05 0.0001097882218623347 0.0001542570167639547 -0.0004818614071014658 
-0.0001436656171800955 0.0001120683306494648 1.769164312487837e-05 -6.018675084589506e-05 0.000207861243847563 -0.000203873303585009 
-0.0001095476355503563 5.932789151450089e-05 3.942440429492567e-06 5.048214968067598e-05 -2.1161255133562e-05 0.0001537916867605769 
0.0007918216567766256 0.0003386214988879338 0.0001226032746435004 -5.477559960230963e-05 2.149752411755825e-06 -0.0001527577545143879 
7.977710178911413e-05 -2.710592967309339e-05 3.539058226001548e-05 -1.824088283159572e-05 -2.330889274604198e-05 0.0001080947017531699 
8.910617654720388e-05 -0.0002334568987750598 -9.913488130471228e-05 0.0002977868192887988 -1.955729288426913e-05 9.369317566187049e-06 
-7.452202040557793e-05 -4.980351074745691e-05 -6.927722727882848e-06 2.379895307091944e-06 -1.058791184067875e-21 -6.301154000208279e-05 
0.0002282677904284466 -0.002147966168292022 8.873686202408391e-05 0.0007168962940348402 -0.0001400853914484947 -0.0003282944183688606 
-7.882097273197678e-05 -6.709946160184875e-05 -5.366265441587667e-05 9.213326512262411e-05 -1.458401463694474e-06 -3.227519210156482e-05 
0.0001018112640461116 -0.0002122676396530408 3.556876633978019e-23 -5.293955920339377e-22 -1.058791184067875e-22 2.953613361446919e-07 
-1.763395940989899e-05 -6.368487343667651e-05 3.556876633978019e-23 0 -1.058791184067875e-22 1.020266454617754e-05 
5.732077335135522e-05 -0.0002145104826315164 2.003431443603433e-21 2.879147231129766e-05 -1.661159664883214e-05 1.481148148579285e-05 
0 1.403189593959835e-06 -1.489643648688109e-05 5.220821389426203e-05 -2.967406500756992e-05 1.588186776101813e-21 
-6.107238102889306e-05 -7.578243180943196e-05 -3.950076261183562e-05 0.0001346317711324186 4.235164736271502e-22 5.81296504435124e-05 
-0.000146504388508366 2.15191483920565e-05 -4.185888058483291e-06 0.0001209418453411047 -3.299424489791659e-05 0.0002540870303731286 
-0.001228969249554525 -0.0002066929934127405 -3.893998824143102e-05 0.0001591666996317869 1.832934340199449e-05 0.0003724555303991317 
1.612378382254922e-05 6.352747104407253e-22 -2.336746584399687e-05 3.522924357403006e-05 6.28657265540301e-23 -3.109859830669595e-05 
-5.516030453833747e-05 1.628686941780179e-05 0 -5.293955920339377e-23 0 0 
0 0 0 0 0 0 
0 0 0 5.048214968067598e-05 -1.446395903635221e-05 0 
-6.572141090718674e-05 2.306142049343779e-05 0 -3.176373552203626e-22 5.192805573251478e-06 -3.909838062666944e-05 
-1.058791184067875e-22 -3.388131789017201e-21 4.089580948462169e-21 1.799945012915388e-21 -5.293955920339377e-22 -2.74974083831817e-05 
0 0 0 0 0 0 
-0.0001763608393279173 -3.18729125810769e-05 0 0 -2.38228016415272e-22 6.361006062676073e-05 
-5.809844463936971e-06 -8.304893350032398e-21 5.78364684297077e-21 -2.117582368135751e-22 -1.058791184067875e-21 1.139832570554797e-05 
7.60373022328072e-05 5.022972976285856e-05 4.089580948462169e-21 6.352747104407253e-22 -5.293955920339377e-22 -5.273408495481377e-05 
0 0 0 5.048214968067598e-05 -1.446395903635221e-05 0 
0.0002433864039686657 -0.0001846698281941343 1.001715721801717e-21 1.493703193693408e-05 -5.855114038018055e-06 -9.758017065148383e-05 
-7.65435328751497e-05 -5.016735016653116e-05 0 3.441071348220595e-22 -6.697296097209858e-06 0.000144023018961206 
-7.335614272212862e-05 -0.0001068617391909944 0 2.39882377640378e-22 0 9.787553198762871e-05 
-0.0002366990579251539 -0.0001102020228613217 1.349273027487345e-05 4.475247593526375e-05 -1.707188439787e-05 0.000341761272793909 
-0.0006424655790194026 2.390902172121775e-05 3.119298089937467e-21 3.610516531720741e-05 -9.27115346310078e-06 5.440156143557712e-05 
8.470329472543003e-22 2.306142049343778e-05 -7.478797592232438e-06 1.516832515134799e-05 -6.352747104407253e-22 -7.23041185271596e-06 
0 -4.235164736271502e-22 0 1.323488980084844e-23 0 -1.058791184067875e-22 
0 0 0 2.640250356243925e-05 0 0 
7.807935833429909e-05 1.893673322833006e-05 1.769529113000774e-05 -2.176313985200738e-06 -5.855114038018056e-06 -0.0001105614588850171 
-1.588186776101813e-22 -1.058791184067875e-21 -1.323488980084844e-22 2.640250356243926e-05 0 0 
0 0 0 0 0 0 
2.541098841762901e-21 1.058791184067875e-22 0 0 0 -2.013146282240857e-05 
-3.508238413959901e-20 0.0001623984138065377 1.769529113000774e-05 -3.157359518977036e-05 -5.293955920339377e-23 -3.705769144237564e-22 
0 0 2.117582368135751e-22 -4.809220828404916e-06 0 -7.230411852715974e-06 
0 0 0 0 0 0 
0 0 0 0 0 0 
-0.0002144185067269811 4.499862532288471e-22 -2.218963250040584e-06 -3.176373552203626e-22 0 6.352747104407253e-22 
0 0 0 0 0 0 
-5.516030453833747e-05 2.144052147737448e-21 0 -1.058791184067875e-22 0 -3.705769144237564e-22 
0 0 0 5.048214968067598e-05 -1.446395903635221e-05 0 
0.0002567563145138626 -4.818723574732448e-05 5.293955920339377e-23 -1.539615063104552e-05 -1.661159664883214e-05 -0.0001582063511548349 
3.110199103199384e-22 -1.694065894508601e-21 2.272265142683167e-21 1.997754597975284e-05 -1.032321404466179e-21 1.164670302474663e-21 
1.031393935861227e-05 -7.577583085944506e-05 0 -1.116361964820812e-05 -2.646977960169689e-22 -4.917980896786698e-06 
0 0 0 0 0 0 
-0.0002144185067269811 -3.010914152740358e-05 1.769529113000774e-05 4.812061379218219e-05 -1.171022807603611e-05 7.411538288475128e-21 
-8.07328277851755e-22 -6.368487343667651e-05 3.556876633978019e-23 0 -1.661159664883214e-05 -9.529120656610879e-22 
0 0 0 0 -1.458401463694473e-06 -2.646977960169689e-23 
0 0 0 0 0 0 
-0.0002778150152744899 -0.0002055603081396301 -2.636866297190313e-05 -5.106199538593237e-06 -1.339459219441971e-05 0.0002892240946821369 
-2.938922693090212e-06 -8.604196133298095e-05 9.315956583660768e-06 -3.213403716918485e-05 5.192805573251477e-06 -0.0001019391255609144 
-0.0001122969404151793 5.49443529307245e-05 6.341328629199588e-06 1.853101565601608e-05 -1.487798027987561e-05 -4.235164736271502e-22 
-1.985233470127266e-23 0.0001271615889974462 -1.615015008980434e-05 1.692243305116412e-05 0 -5.293955920339377e-23 
-0.0002134050847478226 0.0004764130711348558 5.406300079682796e-05 5.904586654871569e-06 3.36615692608644e-06 0.0001179174268749919 
8.896923008141941e-05 3.044024654195142e-22 2.724558097538865e-05 4.594336716991473e-05 -2.737240523789551e-06 1.520063825467964e-05 
-0.00014078276645006 -1.058791184067875e-22 -3.639594695233322e-22 2.440657976734216e-06 1.56763229821013e-05 4.112748328399363e-05 
-0.0005962595812399679 -3.414601568618898e-21 0 5.048214968067598e-05 -1.446395903635221e-05 9.219580471274222e-05 
-3.953501363989322e-05 -0.0001541969668110058 -2.997885481693065e-05 -0.0001883096566452379 -2.119831987949799e-05 -9.681127579642109e-05 
0.0001721528337793673 -0.0002940369919308708 -7.758080561380145e-06 0.0002532386242252342 0.0001007197667442896 -0.0002735739840622544 
0.001093366158332709 -0.0008949723929398625 4.44210764593275e-05 -1.463517520572842e-05 7.478066936652663e-05 -0.0004941286000535101 
-0.00016346731726636 -4.817454984727833e-05 -1.225062557194632e-06 -9.507756020569003e-06 0 0.0001146586903055988 
0.001627042146158569 -0.0008498712751629559 0.0002407505774428481 -0.0009207681778949213 -0.0002615467023021483 -0.0008234904605015113 
0.0001306769160734835 1.628686941780178e-05 1.769529113000774e-05 -9.120441415797863e-06 0 -6.26888823396259e-05 
-2.983925156737658e-05 -6.427122622591128e-05 1.021649353777528e-05 -2.028406106400593e-05 -1.661159664883214e-05 9.423241538204091e-21 
1.397462747431276e-05 -6.822848955784768e-05 1.769529113000774e-05 2.001212203917459e-05 1.058791184067875e-22 -7.230411852715974e-06 
-0.0003352554180480924 -3.826211548700551e-05 4.572614565063194e-05 -3.470685650306134e-05 -2.848220214720659e-05 0.0004987265958525559 
-4.847278389560742e-22 2.38228016415272e-22 1.414320407110492e-05 4.235164736271502e-22 0 -5.823351512373315e-22 
-8.426431689510413e-05 -0.0001068617391909944 9.55028984538088e-06 5.315566169247923e-06 -1.661159664883214e-05 9.787553198762869e-05 
0 0 0 5.048214968067598e-05 -1.446395903635221e-05 0 
0.0001980066867314929 -4.643098298890107e-05 1.769529113000774e-05 -9.120441415797866e-06 1.19114008207636e-22 -2.742154222396644e-05 
1.654361225106055e-24 8.795123517509779e-05 -8.093302879185435e-06 -1.781164722387881e-05 0 -1.058791184067875e-22 
-5.133173952814187e-05 3.176373552203626e-22 9.55028984538088e-06 -5.280479260103874e-06 2.117582368135751e-22 -2.953034786814309e-21 
-1.312901068244166e-20 -4.259662636204497e-05 -4.185888058483293e-06 2.117582368135751e-22 2.646977960169689e-23 1.958035336783453e-05 
-0.0009344881485061936 0.000308140461400919 2.438798322675764e-05 8.7398422392683e-05 -1.707188439787e-05 0.0003004136692236962 
2.117582368135751e-22 3.361795642797299e-05 5.293955920339377e-23 3.394178428337724e-05 -2.117582368135751e-22 -2.632950983059398e-05 
0 0 0 0 2.117582368135751e-22 -1.579685438562768e-05 
-1.852884572118782e-22 0 0 3.371718704072316e-05 0 0 
8.158890774562284e-05 -6.466208721955134e-06 1.547632787996716e-05 -1.323892605460445e-05 -1.058791184067875e-22 -4.570336282869549e-05 
0 0 0 0 0 0 
0 0 0 0 0 0 
0 0 0 0 0 0 
6.821899720042516e-05 -5.289719171085621e-05 0 6.907361895983195e-07 1.323488980084844e-23 -4.235164736271502e-22 
-0.0001651645318376308 1.403189593959841e-06 0 -7.940933880509066e-23 0 3.53113939813625e-05 
0 0 0 8.442393396405333e-05 -2.934193931622779e-05 2.117582368135751e-22 
3.300410267520648e-05 -5.016735016653116e-05 2.117582368135751e-22 -4.809220828404914e-06 0 -7.23041185271597e-06 
-6.131606272319496e-05 -4.343668600506938e-05 7.217315754192512e-06 3.602420876674724e-05 -6.623084647665758e-07 -0.0001221624311285049 
-8.635058505349618e-05 -0.0001006751935111215 -6.927722727882851e-06 4.699336252492675e-05 1.058791184067875e-22 9.835343737684394e-05 
-0.0001095476355503562 0 0 5.048214968067598e-05 -3.777285178239436e-05 0.000144023018961206 
1.095848875510251e-20 -1.345938044312229e-05 4.235164736271502e-22 6.323211594104264e-05 -1.446395903635221e-05 3.970466940254533e-22 
-0.001055343533990285 -0.0002516517328089256 9.550289845380876e-06 0.0001178949788724708 -4.229946635664422e-05 0.0006836156361597149 
-2.341180767511638e-05 1.116134361159357e-05 0.0001893309495507049 0.0001262239901097967 0.0003041289107358407 -0.0001000511528449528 
-0.0003436538706134807 0.0002037576161595731 7.87163404731832e-05 1.087924103371159e-05 0.000246427709223369 0.0003878903903875697 
-0.0001760581627612106 8.795123517509776e-05 0 4.235164736271502e-22 -7.940933880509066e-23 4.609790235637111e-05 
0.0007152288724057412 -0.0007369997256589251 5.046700883015226e-05 0.0002045252986643895 -9.928190153105386e-05 -9.119746468879379e-05 
-5.809844463936968e-06 2.38228016415272e-22 -1.225062557194632e-06 -9.507756020569001e-06 0 1.342009241050999e-05 
-5.516030453833746e-05 -2.858736196983264e-21 -1.058791184067875e-22 -4.809220828404916e-06 -2.607925361517845e-06 0.0001309128133846497 
-1.535247216898419e-21 3.242922979981796e-05 4.168990287267259e-22 -5.293955920339377e-23 -2.607925361517845e-06 0.0001381432252373657 
-8.085789669071355e-06 -7.682490267609076e-05 3.933302268950803e-05 8.272341652975609e-05 -2.892791807270442e-05 3.682556253247704e-05 
-0.0001262715678894921 -8.390468374566145e-05 -1.225062557194632e-06 -1.98878892141711e-05 -2.804664912812284e-05 -3.176373552203626e-22 
7.026654491260547e-05 3.582159148580923e-05 0 5.532099744834109e-05 -6.542279987845814e-06 -2.117582368135751e-22 
-5.516030453833747e-05 0 0 0 0 2.117582368135751e-22 
-0.0002552565913434826 -2.528432715532704e-05 0 4.235164736271502e-22 -6.697296097209857e-06 0.0002423764563380499 
-9.793818452627848e-22 -8.304893350032398e-21 -6.091786697572567e-06 0.0001817929418868147 -4.339187350246114e-05 0 
0 2.715174770601788e-05 -1.94250254145043e-05 3.968755250389297e-05 -2.967406500756992e-05 -1.9316656877116e-05 
-0.0002117737065143772 1.222807775972686e-05 3.942440429492562e-06 0.0002019285987227039 -5.785583614540885e-05 7.252071689403726e-05 
-0.0006200024540048171 0.0008686295207406119 -2.750666682221511e-05 0.0006933031719530223 -0.0001486861248157705 0.0001286939571883238 
-0.0009301769045802422 -0.0001518116519721162 0.0002646795902713318 -0.000393403074211091 -0.0001904828717177828 0.0001104584808840025 
0.0001579730220371435 -4.561804590172963e-05 3.942440429492567e-06 0.0001303917275125481 -2.934193931622779e-05 -5.159398028493613e-06 
0.0001306769160734835 3.361795642797303e-05 4.452786789630131e-05 8.999725064576941e-21 -1.487798027987561e-05 -7.423610046585863e-05 
0.0001570051384802709 -0.0001415371863020675 1.769529113000774e-05 4.594761998038265e-05 -6.114519087991981e-21 -2.839257815252107e-05 
-5.516030453833748e-05 3.560185356428231e-21 1.769529113000774e-05 -9.120441415797866e-06 -7.940933880509066e-23 -2.013146282240858e-05 
-5.956023176219753e-05 -2.451484885059178e-05 4.671202379288043e-05 -1.25685198412164e-05 -1.928464477652788e-05 -4.324416170117309e-05 
1.612378382254921e-05 6.617242642470994e-06 -7.478797592232448e-06 7.834864546060011e-07 -2.96740650075699e-05 -1.833807330729666e-05 
7.657065429025456e-05 -7.730815750585455e-05 -3.029518857187974e-05 0.000127014189369119 -4.810117357753982e-05 -0.0001143508147433376 
-0.0005690949169625543 -0.0001997766636175473 3.786939101316906e-05 0.000168051411770925 1.047200228197578e-06 0.0001858989324715854 
-0.0002398438907549511 -4.48942947080345e-05 0.0001025452876136643 5.559202224283554e-05 -7.032046463230865e-05 0.0003254629163844503 
-0.0002741846182795848 -1.804864012863661e-05 -2.336746584399686e-05 5.745857444477229e-05 -3.637136110477975e-05 0.0002286963930785828 
0.0002890983783927379 0.00095659800829518 -1.46587758379266e-05 0.000106500854136818 -6.130236077793359e-05 0.0002547381024080783 
-6.815066743215303e-05 6.224310074779782e-05 -8.093302879185433e-06 -6.096314708431058e-05 -2.607925361517846e-06 4.128875588041118e-05 
-0.000131318385227337 0.0001274594870736063 -1.47489305505256e-06 5.284791892489359e-05 -4.628566165640217e-05 1.66108075314681e-05 
-0.0004881937780566783 0.0002256901024841096 3.506110909777074e-05 0.0003237736808115621 -0.0001166208839795652 0.0001272740918300763 
-0.0005130148583065763 0.0004814955561716549 -7.538898449863168e-05 0.0009716623970730049 -0.0002610812745438345 0.0008835910311364766 
-0.006765558511747374 0.003169360362617053 -1.238372139832285e-05 0.001958031053302181 -0.001231270623156454 -0.004841484887826283 
-0.000581941206028499 -3.777042906237567e-05 -1.532706540124495e-05 -0.0002905362109983559 1.29076490740752e-05 -5.901237793704513e-05 
-0.0003467237945004371 8.645933059462716e-05 7.081908279338136e-06 0.0001691245863409616 -0.0001636842922457612 0.0001941096893062452 
-4.929996733640292e-06 8.034714950308966e-05 2.613824030064859e-05 7.521031724262525e-06 -0.0001236666724407321 0.0001284346041697589 
0.0004187513252934918 -0.0004189081307299414 0.0001335336103333967 9.902549714506492e-05 -0.000113927132740663 -5.827758679940764e-05 
-0.0001605444032924323 -2.746978741569254e-05 -3.942532901032285e-06 4.121975567067155e-05 -1.510427519998339e-05 3.526607444182765e-05 
0.0002238131605741951 4.723067901014862e-05 2.662359225443058e-05 -2.16922961844252e-05 -6.564781107439365e-05 4.701870306033451e-05 
-0.0006255652402322776 -0.0004283207655045729 5.315971940349725e-06 0.0001635167623588923 -0.0001208152414937023 0.0002405419949159581 
-1.520683133580098e-06 0.0001388617804879802 6.845109790091856e-05 -9.871424204180918e-05 -1.958628745046402e-05 7.170718672937182e-05 
-0.0004798190743967037 5.936881025268009e-05 1.405562767949571e-05 -1.430609618039235e-05 -1.510427519998339e-05 -6.479463747604977e-06 
0.000132879698993145 -3.791932064458112e-05 2.976463954780682e-05 5.27169829192205e-05 -1.510427519998339e-05 -8.868846342724478e-05 
6.714363594995158e-05 0.0001603279303873938 0 8.470329472543003e-22 -2.78398890479774e-05 -1.905824131322176e-21 
-5.393614702781423e-05 -1.613520519810766e-06 0.000103031241077026 3.579155303979037e-05 -3.136241628984925e-05 3.976311057457186e-05 
0.00012419372574599 -7.296417603298733e-05 -5.823351512373315e-22 -7.112499402489415e-07 -9.529120656610879e-22 -0.0001401837869704881 
-0.0003327787469731136 0.0002601633916465179 -1.327803261664651e-05 5.695581502735685e-05 0.0002789727418584447 5.228211771577249e-05 
-0.00211222380287588 -0.001026624059478735 0.0002858490104587131 -0.0006627553000327676 0.0001676907526318116 0.0004049387030547995 
-0.000458026452750062 -0.0004100419616511049 -5.814740515809125e-05 0.0002426547524698077 9.151185461239318e-05 0.0003654186771755463 
0.0001511415860854706 -5.970058160853119e-05 0 -1.208572747350996e-05 7.98806313588882e-05 -9.741520709844694e-05 
0.0001847810235815439 -1.058791184067875e-22 -1.63276336069967e-06 -5.854404192351784e-05 -4.235164736271502e-22 1.482307657695026e-21 
-0.0001090840098063045 -3.335192229813808e-21 0 5.271698291922049e-05 -1.756673675576708e-05 0.0002006555806497002 
-0.0001406539625950213 -2.017862188047201e-05 -1.806560057605423e-06 3.85279519221159e-05 -1.510427519998339e-05 -3.540948874911986e-05 
0 0 -5.293955920339377e-23 0 0 0 
-0.0002776586171973399 0.0001145048563936741 -7.000015933729997e-22 7.625651761435639e-05 -1.756673675576708e-05 0.0001391124456326341 
8.161279973869206e-05 -5.331579765589452e-05 -6.124556312497133e-06 8.489457242904041e-05 -1.510427519998339e-05 -3.875473445758142e-05 
0.0001604260030006033 -0.0002350681048036408 0.0001339649176387796 -5.954570941057338e-05 -5.628245157709731e-05 -2.646823472127232e-05 
-0.0001337904245271291 -4.558773263149274e-05 0 2.117582368135751e-22 1.654361225106055e-22 7.021765234143537e-05 
-0.0001075367262637466 -5.293955920339377e-23 0 2.378197633404581e-05 -6.5743572966653e-06 0.0001413792628923544 
-4.288104295474895e-21 0 0 0 0 -1.058791184067875e-21 
0.0009722683903600925 -0.0002306376415192296 4.220624970965087e-05 -0.0001174824722675541 -7.883960813665865e-05 -0.000339120079111399 
-9.105604182983729e-21 -2.011703249728963e-21 1.405562767949571e-05 -4.255466682236294e-06 0 -1.270549420881451e-21 
-0.0004753280607343211 0.0005829363395064423 0.0001245903036968293 -0.0001977894176169774 0.0003961613001196811 0.0006424113224554941 
1.244512176194046e-05 -0.0002458311188522338 0.0001209213535377405 -0.0001048634836972803 0.0001740938937922513 0.0001362660585204035 
0.0007909089448631263 -0.0005958990821859128 2.573118074431735e-05 0.0003291026334329025 0.0001100968083551084 0.0003127687027359566 
-8.063664005792547e-06 8.253729283929306e-05 -5.09381407268094e-06 -3.74342088991375e-05 -6.5743572966653e-06 0.0001167588291995949 
-2.976103350361519e-05 2.777547386105061e-05 -1.1970337439408e-21 2.37819763340458e-05 0 1.967584948946993e-05 
-0.0002157462400934469 -2.940554850761912e-05 0 5.271698291922048e-05 -1.510427519998339e-05 4.923379005915621e-21 
0.0002845247197406623 -7.739944068980412e-05 -2.293137617270507e-05 3.948084158054568e-05 -3.604280677295121e-05 -1.058791184067875e-21 
7.429782578404388e-05 -1.270549420881451e-21 0 -4.442487574523961e-06 0 -6.679047596372317e-06 
0.0002687759773965299 -2.287078302107605e-06 -2.244920356714785e-06 4.480785130924895e-05 -2.713428352708708e-06 3.599890025830776e-21 
0.0001574910433397408 -1.071133041487525e-05 -3.325251615540389e-06 4.883728001228119e-05 1.588186776101813e-22 -8.868846342724478e-05 
-5.869814702870335e-05 -5.493852383222542e-06 7.931071366998575e-06 3.820173482885936e-05 -1.866865391652131e-05 3.936170237480737e-05 
9.105604182983729e-21 -5.293955920339377e-23 0 0 0 -5.072527321387045e-06 
-3.176373552203626e-22 0 0 -3.176373552203626e-22 0 0 
0 0 0 0 0 0 
1.548476366460271e-05 6.528767548504178e-05 -6.124556312497129e-06 0.0001195451112208122 -1.510427519998339e-05 -7.412676951842413e-06 
-1.058791184067875e-22 -1.61465655570351e-21 1.521014762448973e-05 5.513723583183076e-06 -4.235164736271502e-22 0 
-6.973960611954825e-05 0.000167434974608016 1.85960944745897e-05 5.347737864690644e-05 -1.510427519998339e-05 6.666015333007668e-05 
-0.0001820251198274155 4.561034290099225e-05 -1.300212095031268e-05 6.452187399089779e-05 1.641126335305207e-21 0.0001755144198401639 
0.0007214899501116149 -0.0003393465597479205 0.0003488674041379468 1.050222875012293e-06 -0.0001162912545378006 6.092990544630146e-05 
1.077402747850319e-21 -1.207021949837378e-20 1.405562767949571e-05 4.870310441563412e-05 -2.976499970370459e-05 -4.853527096084495e-05 
8.940168060473123e-21 -0.0001254593055136628 2.117582368135751e-22 -1.14972272485489e-05 -2.462461555783618e-06 0.0001304379283082649 
-0.0001075367262637466 -3.130927757046079e-05 -6.124556312497129e-06 3.217758950981985e-05 -6.5743572966653e-06 0.0001413792628923544 
0.0005196204106113159 -4.989121697942224e-05 -6.92210142396253e-06 -5.532824367073497e-05 -2.138208226923003e-05 -0.0001046451566040716 
6.714363594995156e-05 2.720799022970587e-05 0 -3.430374168785492e-06 -1.317916454425622e-05 0 
8.548814095525351e-05 0.0001817245497623987 -1.061192698661245e-05 4.248398468674537e-06 -1.349958759686541e-21 -8.206284383204165e-05 
-2.553607626675844e-06 -4.79132865340016e-05 1.058791184067875e-22 7.247474981716287e-06 2.646977960169689e-22 -5.817443902796196e-05 
0.0008851726763172276 -0.0009174946916328048 0.0005915486808939871 -0.0001896678206398043 -0.0002345134814475567 0.0003370091010049157 
-3.49101342422232e-06 9.798951809797037e-05 0 -7.940933880509066e-23 -1.058791184067875e-22 2.193245496422483e-05 
1.799945012915388e-21 -2.041878037461982e-05 1.405562767949571e-05 9.533176741273663e-05 -1.510427519998339e-05 1.019861915289247e-05 
-0.0002197191159082752 -2.614452990802488e-05 1.521014762448973e-05 2.8680084852339e-05 0 4.898015100627447e-05 
0.00269833883121357 -0.0005645659704750223 8.964074892993893e-05 -2.99878022928523e-05 -0.0001901179305248034 -0.0006327671778359193 
-3.136954274628118e-05 8.802039083742506e-05 1.521014762448973e-05 2.452790167733025e-05 -7.940933880509066e-23 5.293955920339377e-22 
0.0003800015404693556 -0.0001462712668912149 0.0001421098727212437 -0.0001082086976155938 -3.311593218945266e-05 -5.832675800106331e-05 
-9.677090766134629e-05 3.163497204668087e-05 -2.806353339265265e-05 0.000401063114867342 -3.29219787526755e-05 6.915857509078895e-05 
-0.0006337355181953081 -0.0006556388517957786 7.350499133401155e-05 6.545675752459513e-05 -0.0001648752499993616 0.000515770991606226 
6.138507325756018e-21 0.0001130931194637948 1.699433485235587e-05 4.426202378841905e-05 -1.586245571024614e-05 -4.853527096084495e-05 
-2.053363414297017e-05 6.129127809077376e-05 6.904751404864506e-06 -4.501999085015098e-05 -2.683770474845035e-07 -5.817443902796196e-05 
-0.0001381050875243858 -6.725714881109297e-05 -1.899496996423413e-06 9.838542534968589e-05 -1.510427519998339e-05 0.0001449526328013547 
6.13619726818686e-05 -2.041878037461982e-05 1.405562767949571e-05 7.964245701744231e-06 -3.308722450212111e-22 -3.21807774381739e-05 
0 0 0 0 0 0 
-1.064085139988215e-20 6.227089801879887e-05 1.405562767949571e-05 9.340256494319952e-06 -1.51831638731599e-05 1.031354477105813e-05 
-9.684177009145084e-05 8.470329472543003e-22 0 -3.176373552203626e-22 -1.466072450372118e-05 -7.558096102899935e-05 
-0.0001064614537936928 6.733110175046683e-05 -3.965851845115076e-05 0.0001966801671047771 -1.586245571024614e-05 5.433521418257746e-05 
2.16390448243872e-21 -7.804027499973856e-05 0 -1.14972272485489e-05 5.293955920339377e-23 0 
-2.632609092390917e-05 -5.293955920339377e-21 3.176373552203626e-22 5.271698291922049e-05 -3.377292911650484e-05 6.352747104407253e-22 
2.117582368135751e-22 -5.293955920339377e-21 0 -3.176373552203626e-22 0 6.352747104407253e-22 
0.0002576923203788884 -6.367789536110368e-05 -2.844948908663654e-05 6.115201682678954e-05 -1.328254438962716e-05 -9.289077468966586e-05 
0 0 0 3.465053879177198e-05 0 0 
-2.488159282559507e-21 4.95807908327631e-05 1.405562767949571e-05 -2.774585558993509e-05 3.176373552203626e-22 -1.646900362572533e-05 
-9.280454997171129e-06 -3.440318950588467e-07 3.970466940254533e-23 -1.828407245777742e-05 -1.756931621062631e-21 -1.25012457191577e-05 
8.370072257808946e-05 -0.000113828171233512 -6.124556312497133e-06 -9.800213932502724e-06 -2.43312532709486e-05 1.473809704468354e-05 
-6.447082254266364e-05 -4.791328653400161e-05 0 8.378307407149763e-05 -3.020855039996678e-05 -5.817443902796196e-05 
0.000184781023581544 9.798951809797037e-05 0 7.38755005071109e-21 -4.235164736271502e-22 -2.117582368135751e-22 
-8.470329472543003e-22 2.720799022970589e-05 0 2.378197633404579e-05 -1.058791184067875e-22 6.352747104407253e-22 
3.689225531986503e-21 -1.237417512551818e-05 0 -1.323488980084844e-22 0 8.999725064576941e-22 
0 0 0 -7.940933880509066e-23 0 0 
0 0 0 0 0 0 
-5.265218184781834e-05 8.470329472543003e-22 0 -8.470329472543003e-22 3.970466940254533e-23 0 
-5.473287079527755e-05 2.069936764852696e-20 -3.149758014655564e-06 4.774359489855853e-05 -1.594134438342263e-05 7.159300949614839e-05 
-5.082197683525802e-21 1.588186776101813e-22 0 0 0 -2.140912228671186e-05 
0.0002594955223993584 2.720799022970588e-05 1.058791184067875e-22 9.014902145466683e-06 -2.713428352708708e-06 0 
-5.823351512373315e-22 0 3.176373552203626e-22 4.235164736271502e-22 -1.866865391652131e-05 0 
8.033967947225395e-05 -4.79132865340016e-05 1.521014762448973e-05 -5.327242605545226e-05 -1.866865391652131e-05 -5.817443902796196e-05 
0 0 0 0 0 0 
-5.823351512373315e-22 4.775512869009324e-05 1.521014762448973e-05 -8.901015388839149e-06 0 3.176373552203626e-22 
-1.199222924571851e-05 2.631347697006599e-05 -1.323488980084844e-23 6.624294213222938e-05 -1.510427519998339e-05 1.422750653591208e-22 
0.0007045745132917331 -0.0004249832249028128 0.0001701726482020284 -2.692605954972639e-05 -5.678221919318393e-05 -0.0001767053384232324 
0.0004756510543440085 0.0002646489070594377 -1.404689468230679e-05 0.0001003672165710968 -3.513347351153417e-05 0.0001944966676968817 
-0.0001448105020149179 -6.352747104407253e-22 -2.244920356714787e-06 3.46496853315121e-05 0 -4.853527096084496e-05 
-5.524347219402634e-05 -4.255017070972774e-21 -5.293955920339377e-23 1.270549420881451e-21 0 -2.506538163410264e-05 
-5.069165074680718e-06 2.720799022970587e-05 0 -1.323488980084844e-22 -3.176373552203626e-22 1.17092056712731e-05 
0 1.392565042467661e-06 0 0 0 0 
8.161279973869206e-05 4.244249055649566e-05 -2.129861281200537e-05 9.023369164479374e-05 -9.26442286059391e-23 -4.235164736271502e-22 
-0.0001834526533352055 -0.0001886309862627723 1.058791184067875e-22 -1.14972272485489e-05 -6.574357296665301e-06 0.0002426701905873798 
3.176373552203626e-22 -3.498892091503613e-05 -6.124556312497129e-06 3.217758950981986e-05 4.764560328305439e-22 4.235164736271502e-22 
9.736154208282448e-05 -0.0001329464682312791 -1.588186776101813e-21 -4.235164736271502e-22 -3.044024654195142e-22 4.235164736271502e-22 
0 0 0 0 0 0 
1.058791184067875e-21 2.720799022970588e-05 -2.117582368135751e-22 5.293955920339377e-22 -1.058791184067875e-22 0 
0 3.493307249850868e-05 -2.117582368135751e-22 5.293955920339377e-22 0 0 
1.148126690223602e-21 7.940933880509066e-22 0 3.465053879177198e-05 0 0 
4.045515706495765e-05 -5.847875625094858e-05 1.85960944745897e-05 2.117582368135751e-22 1.058791184067875e-22 -6.155458854667129e-06 
-0.0002553593410458005 0.0001114615169092904 -1.455837878093329e-22 -5.687249286859654e-05 -2.387155977555538e-05 8.358481288207211e-05 
0.0005136755399740374 -0.001094389226338324 -0.0001409461071252409 0.0003219153713802306 -3.540648379993144e-05 0.0001787503145187701 
-0.0001496074538320374 -5.421204111970791e-05 6.127832974653747e-06 -5.892050889175324e-05 3.176373552203626e-22 8.812928631667173e-05 
8.470329472543003e-22 3.284729711049303e-05 0 0 -1.058791184067875e-22 0 
-4.030335532630704e-05 2.720799022970587e-05 -1.799945012915388e-21 2.37819763340458e-05 -7.146840492458159e-22 7.642612571385739e-05 
7.42978257840439e-05 2.80579663777987e-21 8.867376166568457e-22 -2.729897460324411e-05 5.823351512373315e-22 -3.497488311475494e-06 
0 -3.270184261292853e-05 -6.124556312497129e-06 2.773510193529596e-05 0 -6.679047596372317e-06 
1.890563119381426e-05 -5.293955920339377e-21 8.466026735801439e-06 5.558315285302185e-05 4.235164736271502e-22 -6.369128715004347e-05 
0.0001839122046378795 -3.228001376379397e-05 3.118433110675903e-06 2.378197633404579e-05 7.940933880509066e-23 -8.868846342724474e-05 
-0.001300212240386198 -0.001786213025590485 0.0002397287850702459 0.001261148095180636 -0.0001904592336207751 0.001341890562383148 
2.117582368135751e-21 -2.686682629572234e-21 -9.082314649836002e-06 2.378197633404579e-05 -3.705769144237564e-22 -2.329340604949326e-21 
-0.0004589910862314899 -0.0002365736831497591 -2.129861281200537e-05 9.756749863409655e-05 -1.317916454425622e-05 0.0003893393571846042 
4.79717348601345e-05 -4.021660409167975e-05 1.405562767949571e-05 7.964245701744234e-06 -6.959494150585342e-06 4.400370031144039e-05 
0.0004000125582110178 -0.0005018345592875054 7.48962181774549e-05 -1.47456622837624e-05 -9.442669425159666e-05 -0.0002124337654095463 
-0.0001337904245271291 -2.117582368135751e-22 -2.129861281200538e-05 6.893643439066819e-05 -2.117582368135751e-22 7.021765234143534e-05 
-0.0003774641910838907 0.0001049075793126915 5.72355267312909e-05 0.0001364978385420208 -1.466072450372119e-05 2.983424707539201e-05 
-0.0003760809235476849 -0.0001816646831993916 4.379962223372595e-06 9.855181096090064e-05 -3.599890025830776e-21 0.0003452081682679581 
0.0003005429727091487 0.0002574789392085403 -1.810016946019479e-05 0.0001832056612711218 -0.0001847208667978362 0.000145447933755553 
0.0003236464739073472 0.000212746892267063 3.611209031144182e-06 -6.525385391572617e-05 -9.694165375327074e-05 0.0001855097499277328 
-7.359923291824484e-05 0.0001818435616350598 1.405562767949571e-05 -5.412722741553912e-05 -5.798634528865217e-05 -3.329495101712812e-05 
0.0009988778530552614 -0.00123796267303704 0.0001098040033380058 1.557320650067107e-06 -5.506508414232413e-05 -0.001573792029417053 
2.412321146507278e-05 -5.493852383222532e-06 1.509483785593233e-05 3.717946661195999e-05 -7.581805102627319e-07 -7.614065965997339e-05 
-0.0001084714087845452 -8.543386491561851e-06 -6.124556312497139e-06 5.774025404951763e-05 -2.551138826067109e-05 0.0001728817174846369 
1.244079641279754e-21 -2.419979354608499e-05 3.57342024622908e-22 -9.449853951211172e-05 -1.756931621062631e-21 5.41038825607872e-06 
0.0001083597380231162 -0.001877627693982764 0.0001702449743096668 0.0003326576122049574 -0.0005740090816887875 -0.0007578821369253422 
-7.591592707145912e-05 -3.391195102535565e-05 -1.422942437640145e-05 1.808403153154958e-05 0 0.0001012909276950254 
-2.976103350361518e-05 3.639546159843264e-05 -6.452008777913616e-22 0 2.117582368135751e-22 7.174603770312221e-06 
0 0 0 2.378197633404579e-05 0 0 
-1.180311482369425e-05 -2.381614226240457e-05 -2.244920356714787e-06 1.592459046642952e-06 -2.683770474845098e-07 -1.727662130667828e-05 
-3.283709936242983e-05 -6.205177862750201e-05 -9.082314649836006e-06 -1.643041214551807e-05 0 2.752857078576476e-21 
-3.379907387379383e-05 -6.725985296469157e-05 0 -1.184743474267583e-05 -1.317916454425622e-05 4.301145433966059e-05 
-8.885262769847192e-05 -3.815987916554843e-05 2.117582368135751e-22 -5.342894012311338e-05 -7.676236084492097e-21 5.076336254290991e-05 
-0.0002338924708946456 -0.0005893097493307576 -2.982381644682962e-05 0.0001657591282072723 0.0001961286761874381 -0.0003810464745366273 
-2.900938777306436e-05 0.0001847449600217067 6.127832974653747e-06 5.503473748223441e-05 -1.756673675576707e-05 0.0001643348093841987 
-1.36054667152722e-20 -3.504485538840626e-05 3.970466940254533e-23 -4.551208696352231e-05 -2.462461555783617e-06 0.0001304379283082648 
5.293955920339377e-23 0 0 5.568863973767636e-06 9.26442286059391e-23 -2.646977960169689e-23 
3.176373552203626e-22 6.594697433579013e-21 -9.395796631346004e-06 -2.449322627429471e-05 0 1.905824131322176e-21 
-8.470329472543003e-22 2.720799022970589e-05 0 -1.323488980084844e-22 -1.058791184067875e-22 6.352747104407253e-22 
-7.591592707145917e-05 -0.0001105907112630344 1.058791184067875e-22 -3.176373552203626e-22 0 0.0001012909276950254 
6.352747104407253e-22 1.350606210026363e-06 0 -4.848832778198105e-07 3.044024654195142e-22 -1.25012457191577e-05 
-1.199222924571848e-05 5.293955920339377e-23 -7.411538288475128e-22 -3.520480687025686e-21 -2.462461555783619e-06 0.0001304379283082648 
0.0001928600503250702 -0.0001105907112630344 0 2.576556364272391e-05 -2.713428352708708e-06 8.793283250228073e-05 
7.429782578404391e-05 7.890315176980458e-05 1.058791184067875e-22 6.50017320047174e-05 -1.510427519998339e-05 -5.293955920339377e-22 
-8.470329472543003e-22 -6.394748372319739e-05 0 0 -1.756931621062631e-21 5.293955920339377e-23 
3.034098486844506e-21 3.155358532082131e-05 -7.150876274631193e-06 -3.976404927124686e-06 -2.68377047484509e-07 2.964615315390051e-21 
8.033967947225395e-05 -1.298021403549288e-05 0 7.284114818231506e-06 -1.510427519998339e-05 -5.817443902796196e-05 
0 9.938208314043818e-05 1.521014762448973e-05 -7.839557954463286e-06 0 -4.102815838263017e-22 
-0.0002788762294236271 4.095484771888652e-05 -6.922101423962527e-06 8.905769316745247e-05 -5.510751338477938e-05 0.0005037070184391486 
0.0004055097029203773 5.772833155183938e-05 -2.00641262960954e-05 0.0002388799232564009 -4.349109478959401e-05 -0.000206009138764597 
-6.135473813016888e-05 -9.101654030863495e-05 2.126060533851091e-05 -3.905892970648184e-05 -1.321856476585238e-05 6.431987541314886e-05 
-8.414952639971079e-05 -5.421204111970788e-05 1.521014762448973e-05 -1.571241969777276e-05 9.912472866969781e-06 -6.661078496293589e-06 
7.940933880509066e-23 4.19270217685446e-05 0 -3.430374168785493e-06 0 5.293955920339377e-23 
0.0002538900228713963 -8.7553727074762e-06 1.980138959358936e-06 6.114519087991981e-21 -6.193175428001369e-06 -2.735009870532884e-05 
2.117582368135751e-22 4.192702176854462e-05 0 -3.430374168785493e-06 0 -2.117582368135751e-22 
-1.694065894508601e-21 2.008967565383317e-05 0 7.603957276859808e-07 -3.176373552203626e-22 6.352747104407253e-22 
2.541098841762901e-21 2.720799022970589e-05 -4.235164736271502e-22 1.058791184067875e-21 -1.058791184067875e-22 6.352747104407253e-22 
-0.0001716435601746367 -7.431038622901788e-05 0 4.265140460971794e-05 -2.683770474845098e-07 0.0002010075339891794 
0 0 0 0 0 0 
0 0 0 0 0 0 
0 0 0 0 0 0 
0 0 0 0 0 0 
0 0 0 0 0 0 
-1.672658461459926e-05 2.137221987151036e-05 0 -2.484343376842158e-05 0 9.677675209471694e-06 
-7.676236084492097e-21 0 1.058791184067875e-22 2.37819763340458e-05 0 -1.058791184067875e-21 
-8.663164073390696e-05 -1.370684638129931e-07 4.102815838263017e-22 -1.542176682260094e-06 1.588186776101813e-22 -4.992490067394177e-05 
-2.880872626633204e-05 -4.686520408991819e-05 -2.812414082680294e-21 -4.441080627215086e-06 -2.064642808932357e-21 7.840547020570631e-06 
1.548476366460276e-05 -2.514552008781454e-05 -9.082314649836002e-06 -1.323488980084844e-22 2.117582368135751e-22 3.003378705015511e-07 
5.293955920339377e-23 -7.118314575872735e-06 0 7.603957276859808e-07 0 0 
7.195769022455564e-05 -0.0001076564569336433 -4.235164736271502e-22 7.902437918369064e-05 -1.537265224746791e-05 -7.556299192892055e-05 
0.0001637161332087322 -2.686682629572234e-21 0 0 2.117582368135751e-22 -6.369128715004347e-05 
2.458648613193487e-06 4.19270217685446e-05 -5.293955920339377e-23 2.701681213365438e-05 -1.317916454425622e-05 4.698430384060678e-05 
0 0 0 0 0 0 
-0.0003582947431957285 -1.935363009804793e-05 2.811125535899141e-05 6.568310572310486e-05 -1.510427519998339e-05 0.0001074349759324948 
0.0002976712329138504 2.720799022970588e-05 -2.129861281200537e-05 9.023369164479374e-05 -1.51831638731599e-05 -9.750810565772449e-05 
0.0001304640862808938 -5.27060472073655e-05 -5.293955920339377e-23 6.700333785991529e-05 -1.510427519998339e-05 -2.208298269634876e-05 
-3.49101342422232e-06 2.521246507061628e-21 0 8.470329472543003e-22 -1.058791184067875e-22 2.193245496422483e-05 
0.0003172751879552548 -6.986773486153421e-06 -1.841292755459348e-05 6.332616262415076e-05 -8.723573518909457e-05 -0.000184851089244264 
-8.999725064576941e-22 5.555094772210121e-05 8.059271349858532e-06 2.151128235335013e-05 -1.51831638731599e-05 -5.399835038746165e-21 
8.033967947225398e-05 -0.0001402464346008591 -2.844948908663654e-05 -1.346942496516031e-06 6.88214269644119e-22 -3.766227510401113e-05 
0.0006184569580302486 -7.946425065315611e-05 -8.602678370551488e-22 -6.645729295995753e-05 -2.713428352708705e-06 -6.432989788262928e-05 
-7.217119951353397e-05 -0.0001897609980159985 -9.355364650892663e-06 0.0001879642272057635 -8.554397664188878e-05 -0.0001447227160679631 
0.0001618940792095592 -5.906800385424969e-05 3.967948096188783e-05 0.0001512863264375049 -0.000220767898221955 0.0003524267959623552 
0.0004379644724148167 0.0002118713967430775 0.0001526787041578445 -3.413800062967112e-05 -3.328113419786016e-05 -0.0001543722520315759 
7.291425161213967e-05 1.59993621071099e-05 -2.006881540678043e-07 -1.892436230052708e-05 0 3.223633185741773e-05 
0.0009870573189290324 -0.0002695164878565804 0.0001545511665394326 -0.0001082832816386953 -0.0001274889209329815 -0.00137699870917458 
1.852884572118782e-21 -3.270184261292855e-05 3.120049034134696e-05 1.248544855756697e-05 0 0 
0.0001436108847228215 6.882166380138323e-06 0 4.235164736271502e-22 -7.543887186483612e-22 -7.558096102899937e-05 
-3.80062861806784e-05 -2.041878037461983e-05 0 1.197727074507063e-05 3.176373552203626e-22 -1.646900362572533e-05 
3.509327946832265e-05 -0.0004245648197047154 0.0001099938102558984 4.90337343566694e-05 -0.0001122003097845912 5.358400484146803e-05 
1.757995197292242e-05 -5.293955920339377e-23 3.176373552203626e-22 -2.911675756186657e-22 -3.184781846077769e-05 9.67767520947169e-06 
-6.82629246712415e-05 -0.000109397581530159 -1.382425598729248e-22 1.285297879199916e-05 -2.828343974423965e-05 -5.817443902796198e-05 
-5.082197683525802e-21 1.588186776101813e-22 0 0 0 -2.140912228671186e-05 
-0.0002063047249507151 6.376914835553933e-05 4.225059316073738e-06 2.778979045420083e-05 7.940933880509066e-23 -3.387261874818098e-05 
9.827003241379852e-06 -4.791328653400161e-05 0 7.284114818231506e-06 -1.756673675576708e-05 7.2263489280303e-05 
-2.976103350361519e-05 -1.376428539288238e-21 1.058791184067875e-22 -2.449322627429472e-05 -1.866865391652131e-05 1.967584948946992e-05 
1.503483481376383e-20 4.95807908327631e-05 -1.068717351418512e-21 5.27661287066575e-05 -1.510427519998339e-05 1.058791184067875e-22 
2.701768839040082e-05 -0.0002139402825919289 8.450118632147482e-06 -9.690405146686862e-06 1.692222702817146e-05 -1.299412478228736e-05 
-0.0002343719125143769 -0.0003229890597911724 -9.95103151763199e-06 5.355929999046674e-05 -1.712318605950485e-05 0.0001474782756469658 
9.293597606720141e-05 -0.0001195089981788503 -5.293955920339377e-23 2.035074870500045e-05 -1.317916454425622e-05 -9.330105028245153e-06 
0.0001306475023555296 0 -4.01376308135611e-07 -1.21941097591582e-05 -2.43312532709486e-05 0 
0.0001637161332087322 2.720799022970587e-05 1.405562767949571e-05 0.0001142356500678744 -4.539171427312666e-05 -6.369128715004346e-05 
0 0 0 2.378197633404579e-05 0 0 
3.176373552203626e-22 -3.270184261292853e-05 -6.124556312497128e-06 7.974154217791154e-05 0 0 
5.293955920339377e-23 1.455837878093329e-22 0 1.352595921300891e-05 1.588186776101813e-22 0 
-0.0001354101007302131 -5.147174221630753e-05 -6.352747104407253e-22 5.271698291922047e-05 -1.510427519998339e-05 4.271342886783432e-05 
-9.952637130238029e-21 -8.227750949377232e-05 1.699433485235586e-05 -5.509397598061641e-05 -7.581805102627336e-07 -6.776263578034403e-21 
0.0002687759773965299 -7.014491594449675e-21 2.938707172860078e-06 -1.323488980084844e-22 -3.471608862971431e-06 0 
0 0 0 0 0 0 
-4.973319747311146e-05 8.268820118860179e-05 -1.382425598729248e-22 1.317575171888198e-05 -2.984388837688107e-05 -3.327698191704931e-05 
-2.117582368135751e-22 1.392565042467661e-06 0 2.378197633404579e-05 4.764560328305439e-22 -1.500297775444342e-05 
-0.000215746240093447 1.894598313953235e-05 -2.035398068889853e-05 4.172826033375738e-05 8.470329472543003e-22 -1.268659340293608e-06 
-3.09652165119031e-05 3.735012433570629e-05 -5.09381407268094e-06 -1.654021363142493e-05 -8.470329472543003e-22 1.169964258395002e-20 
-0.0003362996227258627 0.0001765506867145805 -1.392787744245489e-05 3.065665281849088e-05 -5.415707148417036e-05 0.0005598668565169801 
0.0006535039093963747 0.0002814721771802152 0.0001484781644464859 -0.000575898945023708 0.0006091168349184356 -0.0007560413630642494 
0.000275881655510351 0.0003725492422578513 -2.403258635862527e-05 2.708124588336946e-06 0.0004148980683254357 0.0003195627758677134 
7.246102165964522e-22 2.777547386105061e-05 -5.575296261731955e-06 2.197860168808122e-05 0 -3.875473445758142e-05 
0.0006002606696792963 -0.0001808213810833664 6.623088630099907e-05 0.0002920842510200149 -8.285391621124241e-05 -0.000106636772629647 
1.574874234413227e-05 -3.181170805831138e-05 0 0 0 0 
3.5665024471255e-05 7.929021608506656e-06 0 -8.534602598771591e-10 -3.176373552203626e-22 -4.853527096084494e-05 
-0.0001076745029872561 -1.482307657695026e-21 -5.293955920339377e-23 5.271698291922052e-05 -1.510427519998339e-05 9.972391435992463e-05 
0.0005179253290071372 -0.0002707361226073293 1.467762168944937e-05 -4.58263744501809e-05 -1.589259289696495e-05 0.0001649863149457869 
3.566502447125499e-05 -0.0001156963361158652 -3.500007966864998e-22 1.799945012915388e-21 0 -1.850046606591887e-05 
-0.0003020541973754364 0.0001617638177479994 -1.038315192688471e-05 -2.788143122863475e-05 -1.31487145933306e-05 0.0003251572122488636 
0 0 0 0 0 0 
-0.0001238961894226697 9.938208314043822e-05 -7.411538288475128e-22 7.64989592532662e-05 -4.346660361739958e-05 1.508777437296722e-20 
-0.0001819723287713001 2.117582368135751e-22 -5.889525961377557e-22 3.176373552203626e-22 -2.117582368135751e-22 9.287000819499061e-05 
5.028855618839564e-05 -0.0001673144497510637 0 -3.634939646250393e-05 -9.287785649373994e-06 7.652577626801987e-05 
-4.305867552423234e-05 -1.237417512551818e-05 4.225059316073742e-06 5.19896580024907e-05 -1.756673675576708e-05 0.0001534006574624874 
0.001072368564452093 3.828001250898538e-05 -1.415649165755385e-06 0.0004728613080848116 -0.0001805441093197706 0.0003679715590553006 
-0.001291397432792867 -0.0006606346447609299 8.062427818706112e-06 -0.0002799923840638232 -6.680974803115468e-05 0.0001387132987858298 
0.000139054399614955 -8.055661316676642e-05 6.986747853729246e-05 -8.832474515157758e-05 -9.124582940758985e-05 -5.038790091002462e-05 
-0.0003623811977357763 0.0001807607284045789 4.592139782750082e-05 -6.140265692835626e-05 -1.466072450372119e-05 0.0001251138185509046 
0.0006233145360526209 1.672415125498331e-05 4.490798430521678e-05 2.376627179867247e-05 -4.358404088061168e-05 -3.268241757185303e-05 
-0.000113313017326653 -0.0001092111487481155 -7.242985132509687e-06 0.000104287110728916 -1.510427519998339e-05 -2.959893979690424e-05 
-8.470329472543003e-22 0.0001311007354524423 1.521014762448973e-05 -1.571241969777276e-05 -2.117582368135751e-22 -6.679047596372315e-06 
-4.631614730099431e-05 -1.781657952127524e-05 3.093068046049285e-05 -2.683121276230065e-05 -1.111730743271269e-21 1.755155195829188e-05 
0.0001681408957316382 -0.0001097639512051256 1.772116743621983e-05 1.26249056221876e-05 -3.89919777746699e-05 -0.000131960739915145 
4.799819264200637e-05 -0.0005980049594113819 2.169828366039449e-06 0.000273811993226853 -5.497876830645361e-05 0.0002525110253993909 
0.0001070806808305655 -0.0003290589720772634 2.815062314612952e-05 3.44132267204959e-05 -3.18478184607777e-05 -0.0001476408612764924 
-0.000144810502014918 5.441598045941175e-05 3.349083462005909e-05 4.643326389519829e-05 -1.510427519998339e-05 -5.776677310528737e-07 
0.000190086531897167 -0.0006381018470999155 -4.710854321276834e-05 0.0001447195679357608 -9.332464011811578e-05 -0.0001530041006031185 
0.0001191490795953595 -0.0004884526749762252 1.200524732037387e-05 4.611530380818526e-05 -2.979980076476508e-05 -9.296717761314701e-06 
0.000322723079795598 0.0002024429751222417 3.672475752611004e-06 -2.940555922200209e-05 -4.391166512970798e-05 6.092309841054561e-05 
2.037308899994428e-05 4.363933727489071e-05 4.965769604804735e-05 0.0002520116878586705 -7.287836463165801e-05 0.0003968142182869684 
0.0004815146488334361 -0.0002237695817290033 -5.01520698216685e-05 0.0008134845143137012 -0.0002874699065000174 0.0002874426450972053 
-0.005081843892300706 -0.0005344510961777519 2.872012469193813e-05 0.002076965244144285 -0.002180918846530685 -0.002006492630705878 
-0.0001411140486054948 -9.038783020068389e-05 -2.842649253745279e-06 0.0001228717631614098 -3.411269699520439e-05 -0.0001408617820005999 
-0.0004914253872182431 0.0001603593652470466 1.451515056992681e-05 2.856515251022393e-05 -6.73304447377534e-05 -9.833270215520464e-07 
-0.0006029751364615623 8.966377590107605e-06 2.56029298178296e-06 4.8898751594686e-06 -2.640099029096708e-05 0.000420348749168594 
0.0004561213345405786 -0.0005520975635625117 9.830848227498999e-06 0.0001472642495250729 -2.51802008726877e-05 7.463841356325085e-05 
1.242645446625629e-05 -4.239398707202356e-05 0 0.0001344047551928802 -4.985239533147261e-05 -2.329340604949326e-21 
0.0001772350665077189 -1.259010044134783e-05 2.014699751438655e-05 -4.706020004424975e-05 -6.551334809287295e-05 -8.101129920978958e-05 
-0.001378630385125931 -9.550847580625981e-05 -9.104504599735863e-06 9.490830677155869e-06 -5.865644326467869e-05 0.0005561488677131834 
-0.000527769115873745 5.294874615218142e-05 7.018397845187225e-05 0.0001659422854479135 -5.29992419098154e-05 0.0001953827205211079 
-3.119975587813189e-05 0.000170246609342144 0 8.291968045380091e-05 -5.690943304436523e-05 -6.963804331197082e-05 
-0.0002921957487681253 0.0002473205574594293 -5.337101992464013e-06 -7.122691825154582e-06 2.514629062161204e-22 1.625244467544189e-20 
-0.0002027706740259953 -3.215538516515669e-06 0 1.111730743271269e-21 -6.091117531236161e-06 0.0001309873601171129 
-0.0002180477458254679 -0.0001336838824780703 9.207470972950223e-05 6.236957600110404e-06 1.029938744707475e-05 0.0003418949689317326 
-0.0001588771976000493 -1.193438387494454e-05 1.058791184067875e-22 -4.078205024764389e-05 -1.289087462596159e-05 -1.310414245578528e-05 
-0.0006979460206012966 -0.0002547069298125085 4.046676197703783e-05 -0.0001740192719560825 0.0001119318576795737 0.0005936842135297472 
-0.002110736029912064 8.600387345218163e-05 0.0005736321586311708 -0.0004792122972287339 0.000178236603990242 0.0005824715845339958 
-0.0003409786624352401 0.0003061777581928398 2.000455102310506e-05 9.235595477363979e-05 4.156980030991648e-05 -6.738673132811747e-05 
0.0002420302406490714 2.827117860708593e-05 -5.337101992464013e-06 0.000147099625104435 -8.06652705529803e-05 -6.418430970005483e-05 
9.923592142198502e-05 9.886681471360599e-06 -1.176090915905612e-05 -2.383373042990774e-05 1.323488980084844e-23 -4.527686301473621e-05 
-0.0006053568216678242 1.647354707091327e-06 0 5.107268296793421e-05 -1.463315645228107e-05 3.928115292891818e-20 
7.557606010427451e-05 3.379469033741468e-05 -9.25019499455611e-06 1.101463543981556e-05 -7.695207800948762e-06 -2.223461486542538e-21 
2.646977960169689e-23 0.0001098216327329051 2.460862322345257e-22 -1.323488980084844e-22 0 0 
-0.0001766399495173701 0.0001807256279266974 -1.067420398492802e-05 3.989026917520934e-05 -1.463315645228107e-05 0.0001811394934327577 
3.442905387957414e-05 9.539630112799527e-05 3.970466940254533e-22 -3.883887175413868e-05 1.058791184067875e-22 -1.310414245578528e-05 
7.948521237442752e-05 -0.000197289559401156 9.098380348040778e-05 0.0001856517610245388 -0.0001375731319689437 -3.542138175749847e-05 
3.029699543107638e-05 -2.545964591457919e-05 -1.588186776101813e-22 -4.235164736271502e-22 0 4.235164736271502e-22 
-6.897221140144998e-05 -0.0001320855797910201 0 4.055367345664907e-05 -6.352747104407253e-22 6.039871127247911e-05 
-0.0001401676949319074 -0.0002949146002643874 -5.293955920339377e-23 -2.117582368135751e-21 -2.025518335858577e-05 0.0001251396228692995 
-0.0004982208109708042 9.266785690391138e-05 2.955737012293629e-06 6.546491904096968e-05 -4.169115339586418e-05 -8.206006123320607e-05 
-4.570584068803563e-05 -0.0001038137053147265 0 -9.630578612737195e-06 -1.837489934643022e-05 0.0001192141273528942 
0.000802401263581194 0.001344960434521605 -0.0002050255734414795 -0.0005930128217085557 0.0001806618874739423 -0.0003070028915348173 
1.374749319143554e-05 -0.0004381288659627967 -1.97184953648478e-05 -9.970366308390273e-05 -6.719848218572354e-05 -0.0001705915365472604 
-0.0002709350818186402 0.0001740746099552834 0.0001729762007358868 0.0001622152540464796 -5.524213513879424e-05 0.0001135352289211869 
-0.0003521296591797435 0.0001850660442718446 -9.06893208454917e-06 8.952219908845312e-05 -4.354234084452179e-05 0.0001981998429790877 
0.0001470402702535115 0.0001761392706767495 3.970466940254533e-22 -0.000129903800256124 -8.470329472543003e-22 -0.0001146498930235988 
0.0003613305747625396 -5.451344212131929e-05 2.460862322345257e-22 3.387079986055625e-05 -1.616350725311735e-06 -5.97920204984906e-05 
-7.484276363993091e-05 3.033130956970762e-05 1.588186776101813e-22 1.760356046291529e-05 -5.914869451675086e-05 1.732263852482618e-05 
0 0 0 0 0 0 
0.0001038755236792441 -0.0001176527769963777 3.176373552203626e-22 6.374806396729014e-05 -1.463315645228108e-05 9.985381532626331e-05 
-0.0002305042343974348 -6.093832389967521e-05 0 8.924827522975176e-05 -3.176373552203626e-22 -4.638805531550038e-05 
-0.0001402442492272275 7.548712212289093e-05 7.940933880509066e-23 1.292397001866188e-05 -7.695207800948759e-06 0.0001260502559205905 
0 0 1.058791184067875e-22 0 0 0 
0 0 0 0 0 0 
0 0 0 0 0 0 
-5.887998317245675e-05 8.999725064576941e-22 1.966169645499798e-05 4.545906811789862e-05 -1.463315645228107e-05 5.296779478288851e-05 
0 4.235164736271502e-22 -3.91309300209212e-06 -2.285873380011132e-05 0 2.117582368135751e-22 
1.651714247145886e-20 3.382188880786226e-05 -1.482307657695026e-21 -4.760519222532152e-06 -2.567480291596795e-06 9.517735220365556e-05 
-0.0003187509586651836 0.0002772065440250069 -5.539572375830147e-06 -8.38533036638279e-05 -1.36921308131239e-05 4.148086927297511e-05 
0.0004889119485348376 -0.0003956187394935143 0.0001057373346818987 7.843233834430162e-05 8.316181996733836e-05 -0.0003592505459475503 
8.801201717564214e-21 -1.499212278274085e-05 0 -8.973685030936287e-10 0 -4.021416663261254e-05 
0.0001536932103395783 7.172630273140057e-05 -3.91309300209212e-06 2.077441048859446e-05 1.588186776101813e-22 -5.979202049849057e-05 
4.993100500297316e-05 -1.49700913039811e-05 0 5.107178559943112e-05 -1.463315645228107e-05 -5.103228058401304e-05 
-0.0002240162921171689 -2.81012852539413e-05 -6.352747104407253e-22 3.073332962198694e-05 -1.026268809254555e-05 0.0002716837031426451 
5.515870615975447e-05 -1.058791184067875e-22 0 0 -1.082672474081599e-05 -1.058791184067875e-22 
-8.470329472543003e-21 2.411119520681096e-05 -5.337101992464012e-06 2.940295882545787e-05 -1.19114008207636e-22 -7.412036361363879e-06 
-0.0001318966911657259 4.309227971515725e-05 1.905227469702596e-06 2.144052147737448e-21 -1.051563479202575e-05 6.866982269911749e-05 
-0.0001223668286775483 -0.0006951859371134958 0.0005546198965002248 0.0003816694189347666 -0.0003036341757102605 -0.0004371362348930959 
0.0001165395047255049 -1.851561083138697e-20 0 3.761513539368147e-05 -7.695207800948762e-06 1.888012822660561e-08 
-5.120925809434981e-06 9.736038922552517e-05 -1.195954253351454e-05 0.0001804740673990539 -3.002357205417862e-05 0 
-2.378917369437355e-05 -7.251630051019759e-05 0 4.677924539977369e-05 -1.448156932175163e-05 5.006912691041833e-05 
0.0006907387420055501 -0.001600504915126932 0.000184616612019945 0.0009407937880395017 -8.579550202992836e-05 -0.0005521358201992948 
-2.117582368135751e-21 4.75358496791156e-05 0 -1.588186776101813e-22 -1.270549420881451e-21 -1.310414245578528e-05 
0.0005971200509373571 -0.0004501085360437738 5.986822739652054e-05 0.0002238497799889132 -8.040032806552939e-05 -0.0003426199061166261 
0.0002678311996836528 -0.0003248853626282039 1.622982193223654e-05 1.91749620697595e-06 -3.46727587801254e-05 0.0002011664790768998 
0.0006206280776121793 -0.0002363337568660507 2.769582506185049e-05 0.000239266150817853 -8.053751982309758e-05 -0.0004916527166525643 
8.838603174769157e-05 -4.617056291497045e-05 9.156889380962016e-22 4.571693683126467e-05 -1.463315645228107e-05 -1.615117865707104e-05 
-3.474781095248722e-05 3.29104742927674e-05 0 7.219208278778576e-05 -7.695207800948762e-06 -5.717472393966527e-21 
9.674118498242486e-06 9.736038922552514e-05 -2.646977960169689e-22 2.053555709236398e-05 1.058791184067875e-21 -1.99710643778252e-06 
-8.596402702960358e-05 -1.132790556118946e-05 9.830848227498991e-06 9.042471444932654e-05 -2.002986655920616e-05 -1.785609737681766e-05 
0 0 0 0 0 0 
0.0004022100519675528 -9.529120656610879e-22 0 -3.705769144237564e-22 0 -0.0001840054000516636 
-0.0002263756641849777 6.352747104407253e-22 0 -5.293955920339377e-22 5.293955920339377e-23 1.625244467544189e-20 
-8.248317953730411e-06 -3.225287018729327e-05 -7.940933880509066e-22 8.452883141424173e-05 -1.228378181519394e-05 -1.881121618963589e-05 
0 4.235164736271502e-22 0 -2.285873380011132e-05 0 2.117582368135751e-22 
3.442905387957414e-05 -5.068596939132418e-05 0 3.761513539368142e-05 -7.695207800948762e-06 1.058791184067875e-21 
1.111730743271269e-21 -1.747005453711994e-21 -2.646977960169689e-23 5.107268296793422e-05 -1.463315645228107e-05 2.964615315390051e-21 
6.323864971257097e-05 -2.392274076935755e-05 1.058791184067875e-22 5.77891939544232e-05 -1.79808734935069e-05 -0.0001459477827239132 
0 0 0 0 0 0 
-0.0002263756641849777 -4.301339185275744e-21 0 1.393616460900031e-05 -1.511235051230661e-05 2.699917519373082e-21 
-1.042445695142462e-05 -8.154951685741353e-05 2.117582368135751e-22 -6.600591316869175e-05 1.915196634871305e-06 7.867588136777037e-05 
0.0001741111949749135 2.610191780569945e-05 -1.729664452597859e-05 8.189051628077752e-05 -2.691693826747505e-05 -0.0001406522628551964 
-6.582008458314724e-05 0.0001646205374492066 0 -2.65393294185045e-06 2.514629062161204e-22 0 
0 0 0 0 0 0 
-1.08195224121936e-21 2.646977960169689e-22 0 -2.646977960169689e-22 0 0 
0 0 0 0 0 0 
-1.058791184067875e-21 2.868395486261634e-05 0 0 -2.117582368135751e-22 0 
1.310227878560122e-05 -6.396941120259537e-05 0 0 0 5.955700410381799e-23 
0 0 -3.91309300209212e-06 0 0 0 
1.550195112339904e-05 -0.000146002641166 -2.947449519957056e-07 0.000119761841657645 -5.271143623361479e-05 1.058791184067875e-22 
0 7.548712212289091e-05 0 0 0 0 
-2.117582368135751e-21 5.736790972523274e-05 0 -5.823351512373315e-22 -7.014491594449675e-22 6.88214269644119e-22 
0 -1.529529534673363e-05 5.293955920339377e-23 1.694065894508601e-21 0 6.88214269644119e-22 
0.0001889514978361396 1.992987245303361e-05 9.830848227498991e-06 5.776853193675152e-05 -1.997898961614269e-05 -7.156525326270937e-05 
0 -8.039860052920782e-06 0 8.588374635978492e-07 0 0 
5.208262510623703e-05 -1.458779456628134e-05 9.830848227498991e-06 2.392220477021485e-06 -5.142832846279104e-06 -1.787497750504423e-05 
0 -1.588186776101813e-21 0 0 0 6.88214269644119e-22 
-0.0007329693532093828 -0.0006030590557012811 0.0001090746195601093 -0.0001573172088795145 6.166083341598748e-05 0.0005004503813777987 
0.0005813242838166893 -5.960291051618266e-05 -7.847816156964008e-06 -5.716960040913344e-05 -1.463315645228107e-05 -0.0002482862837929891 
0 1.647354707091334e-06 0 -2.464998225408022e-22 0 1.058791184067875e-22 
-0.0001380416647937054 0.0001166323204928873 2.460862322345257e-22 2.01749559292449e-05 0 9.317802162386713e-05 
0.0001131903433726755 -5.929230630780102e-21 0 5.107268296793422e-05 -1.463315645228108e-05 -7.194880841036234e-05 
-6.217485333523009e-05 -3.269017780809565e-21 0 0 0 1.888012822660561e-08 
2.369583775595071e-05 -6.392505345829452e-06 -2.947449519957068e-07 8.5883746359785e-07 -7.940933880509066e-23 1.058791184067875e-22 
-0.0001916686258629299 0.0001168979760361734 1.058791184067875e-22 3.301196239695841e-05 -5.293955920339377e-22 1.399474343935037e-05 
6.470745456243996e-05 0.0001443993203131898 0 -2.180923046539228e-05 -1.164670302474663e-21 -7.30353716920709e-05 
0 0 0 0 0 0 
0 0 0 0 0 0 
5.293955920339377e-23 0.0001017817726799846 2.460862322345257e-22 8.588374635978492e-07 0 0 
0.0001488738203308018 0 0 0 -5.293955920339377e-23 -5.226457114281138e-05 
-1.312901068244166e-20 7.319053887220312e-06 0 -6.352747104407253e-22 0 -4.082347567591463e-05 
-3.05725954399599e-21 -7.946856324001804e-05 0 -2.646977960169689e-22 0 1.081811395140058e-05 
-0.0002377400521935121 0.0003064966070217226 -1.626479373738034e-06 -2.331662379680173e-05 -1.720535674110298e-22 4.865302880753905e-05 
2.111795770555476e-05 -0.0005018429115238297 0.0004087742319096087 -0.0001427124605896355 -0.0001111569900134848 0.0007415540341123624 
0.0002483484185092032 -0.0001071577149010597 0 3.176373552203626e-22 -7.146840492458159e-22 -9.754143415754778e-05 
-0.0003199214051411925 2.229144951678687e-05 0 1.479500207259818e-05 -1.082672474081599e-05 5.914251487522013e-05 
-7.483883438149091e-05 -0.000109021653869219 0 -2.464998225408022e-22 0 9.985381532626331e-05 
-7.483883438149091e-05 -4.034521950631018e-05 0 4.571693683126468e-05 -2.911472577403268e-05 9.985381532626334e-05 
0 0 0 0 0 0 
1.632691098557334e-05 4.205614866393697e-06 5.917755225406829e-06 -2.806807425017795e-06 0 -5.293955920339377e-22 
0.0001488738203308018 0 -1.195954253351454e-05 2.585516353899987e-05 -5.293955920339377e-23 -5.226457114281138e-05 
0.002651953644468918 -0.003086869238419431 0.0005849267492956126 0.0002104893096156335 -0.0004225482844906848 -0.001512421568775231 
-0.0001881373253364234 0.0001060883101184329 -3.913093002092119e-06 1.329315015755045e-05 7.411538288475128e-22 2.53046876712621e-05 
0.000143752894521367 -0.000194858913387119 -2.947449519957068e-07 5.406865824951591e-05 -1.028566569255821e-05 -5.22645711428114e-05 
-0.000152605493297868 -0.0001343450089531852 2.011703249728963e-21 6.868915868971079e-05 -3.446763842950408e-05 -1.164670302474663e-21 
0.0001418795295472747 -0.0004106890206937604 0.0001332404871637475 0.0002307367381741228 -0.0001040100150201741 -9.805687883541397e-06 
-1.270549420881451e-20 -3.882264304474473e-05 0 -6.881805771694451e-06 3.474158572722716e-22 4.632211430296955e-22 
0.0003986980461552157 -0.0004413197237534937 1.13273296766001e-05 3.4037543558015e-05 -7.480381091657904e-05 -6.53047539340578e-05 
-1.230707860543888e-06 -0.0001073379815298239 -2.421383001902471e-05 0.0002165180399068534 -4.101174078210333e-05 0.0001057358008817871 
0.0001195495741984006 -0.0001497580017557516 2.16753737716555e-05 4.605061309631418e-05 8.78145764215419e-05 0.0002482287779934522 
-1.02204124668049e-05 -8.961362092560375e-05 -3.344908675570281e-05 4.126105078618531e-05 9.442065891706966e-05 -0.0003472641386856673 
0.0001612461927896821 0.0001547789238093313 -1.176510600675716e-05 -1.427831532778055e-05 -2.567480291596794e-06 3.237095437936585e-05 
-0.0003255771774792843 -0.0006958062301876628 1.97985617863944e-05 -0.0005779174791053483 0.0005082555559792838 -0.001022282998585602 
-1.354732207550349e-05 -2.61687246143213e-05 2.117582368135751e-22 5.564626252970706e-05 -7.695207800948762e-06 6.776263578034403e-21 
-0.0001082154318932701 4.898287152096545e-05 -2.947449519957077e-07 2.343841941925022e-05 4.482676926468095e-06 6.090612099004558e-05 
4.235164736271502e-22 6.159013623802402e-05 1.058791184067875e-22 -1.852884572118782e-22 -5.142832846279106e-06 2.646977960169689e-22 
